digraph Tree {
node [shape=box, style="filled", color="black", fontname="helvetica"] ;
edge [fontname="helvetica"] ;
0 [label="Contract_Month-to-month <= 0.5\ngini = 0.4\nsamples = 3955\nvalue = [2931, 1024]\nclass = Not churn", fillcolor="#eead7e"] ;
1 [label="MonthlyCharges <= 95.2\ngini = 0.1\nsamples = 1812\nvalue = [1685, 127]\nclass = Not churn", fillcolor="#e78a48"] ;
0 -> 1 [labeldistance=2.5, labelangle=45, headlabel="True"] ;
2 [label="Contract_Two year <= 0.5\ngini = 0.1\nsamples = 1374\nvalue = [1319, 55]\nclass = Not churn", fillcolor="#e68641"] ;
1 -> 2 ;
3 [label="StreamingMovies <= 0.5\ngini = 0.1\nsamples = 612\nvalue = [569, 43]\nclass = Not churn", fillcolor="#e78b48"] ;
2 -> 3 ;
4 [label="PaymentMethod_Electronic check <= 0.5\ngini = 0.1\nsamples = 418\nvalue = [402, 16]\nclass = Not churn", fillcolor="#e68641"] ;
3 -> 4 ;
5 [label="TotalCharges <= 31.5\ngini = 0.0\nsamples = 351\nvalue = [342, 9]\nclass = Not churn", fillcolor="#e6843e"] ;
4 -> 5 ;
6 [label="PaymentMethod_Mailed check <= 0.5\ngini = 0.4\nsamples = 4\nvalue = [3, 1]\nclass = Not churn", fillcolor="#eeab7b"] ;
5 -> 6 ;
7 [label="gini = 0.0\nsamples = 1\nvalue = [0, 1]\nclass = Churn", fillcolor="#399de5"] ;
6 -> 7 ;
8 [label="gini = 0.0\nsamples = 3\nvalue = [3, 0]\nclass = Not churn", fillcolor="#e58139"] ;
6 -> 8 ;
9 [label="MonthlyCharges <= 20.8\ngini = 0.0\nsamples = 347\nvalue = [339, 8]\nclass = Not churn", fillcolor="#e6843e"] ;
5 -> 9 ;
10 [label="gini = 0.0\nsamples = 149\nvalue = [149, 0]\nclass = Not churn", fillcolor="#e58139"] ;
9 -> 10 ;
11 [label="MonthlyCharges <= 20.8\ngini = 0.1\nsamples = 198\nvalue = [190, 8]\nclass = Not churn", fillcolor="#e68641"] ;
9 -> 11 ;
12 [label="gini = 0.0\nsamples = 1\nvalue = [0, 1]\nclass = Churn", fillcolor="#399de5"] ;
11 -> 12 ;
13 [label="tenure <= 48.5\ngini = 0.1\nsamples = 197\nvalue = [190, 7]\nclass = Not churn", fillcolor="#e68640"] ;
11 -> 13 ;
14 [label="TotalCharges <= 1541.0\ngini = 0.1\nsamples = 117\nvalue = [110, 7]\nclass = Not churn", fillcolor="#e78946"] ;
13 -> 14 ;
15 [label="MultipleLines_Yes <= 0.5\ngini = 0.1\nsamples = 73\nvalue = [71, 2]\nclass = Not churn", fillcolor="#e6853f"] ;
14 -> 15 ;
16 [label="gini = 0.0\nsamples = 52\nvalue = [52, 0]\nclass = Not churn", fillcolor="#e58139"] ;
15 -> 16 ;
17 [label="gender <= 0.5\ngini = 0.2\nsamples = 21\nvalue = [19, 2]\nclass = Not churn", fillcolor="#e88e4e"] ;
15 -> 17 ;
18 [label="gini = 0.0\nsamples = 10\nvalue = [10, 0]\nclass = Not churn", fillcolor="#e58139"] ;
17 -> 18 ;
19 [label="PaperlessBilling <= 0.5\ngini = 0.3\nsamples = 11\nvalue = [9, 2]\nclass = Not churn", fillcolor="#eb9d65"] ;
17 -> 19 ;
20 [label="tenure <= 24.5\ngini = 0.2\nsamples = 9\nvalue = [8, 1]\nclass = Not churn", fillcolor="#e89152"] ;
19 -> 20 ;
21 [label="gini = 0.0\nsamples = 5\nvalue = [5, 0]\nclass = Not churn", fillcolor="#e58139"] ;
20 -> 21 ;
22 [label="gini = 0.4\nsamples = 4\nvalue = [3, 1]\nclass = Not churn", fillcolor="#eeab7b"] ;
20 -> 22 ;
23 [label="PaymentMethod_Mailed check <= 0.5\ngini = 0.5\nsamples = 2\nvalue = [1, 1]\nclass = Not churn", fillcolor="#ffffff"] ;
19 -> 23 ;
24 [label="gini = 0.0\nsamples = 1\nvalue = [0, 1]\nclass = Churn", fillcolor="#399de5"] ;
23 -> 24 ;
25 [label="gini = 0.0\nsamples = 1\nvalue = [1, 0]\nclass = Not churn", fillcolor="#e58139"] ;
23 -> 25 ;
26 [label="TotalCharges <= 1617.5\ngini = 0.2\nsamples = 44\nvalue = [39, 5]\nclass = Not churn", fillcolor="#e89152"] ;
14 -> 26 ;
27 [label="DeviceProtection <= 0.5\ngini = 0.4\nsamples = 3\nvalue = [1, 2]\nclass = Churn", fillcolor="#9ccef2"] ;
26 -> 27 ;
28 [label="gini = 0.0\nsamples = 1\nvalue = [1, 0]\nclass = Not churn", fillcolor="#e58139"] ;
27 -> 28 ;
29 [label="gini = 0.0\nsamples = 2\nvalue = [0, 2]\nclass = Churn", fillcolor="#399de5"] ;
27 -> 29 ;
30 [label="SeniorCitizen <= 0.5\ngini = 0.1\nsamples = 41\nvalue = [38, 3]\nclass = Not churn", fillcolor="#e78b49"] ;
26 -> 30 ;
31 [label="tenure <= 44.0\ngini = 0.1\nsamples = 39\nvalue = [37, 2]\nclass = Not churn", fillcolor="#e68844"] ;
30 -> 31 ;
32 [label="PaymentMethod_Mailed check <= 0.5\ngini = 0.1\nsamples = 36\nvalue = [35, 1]\nclass = Not churn", fillcolor="#e6853f"] ;
31 -> 32 ;
33 [label="gini = 0.0\nsamples = 29\nvalue = [29, 0]\nclass = Not churn", fillcolor="#e58139"] ;
32 -> 33 ;
34 [label="gini = 0.2\nsamples = 7\nvalue = [6, 1]\nclass = Not churn", fillcolor="#e9965a"] ;
32 -> 34 ;
35 [label="Dependents <= 0.5\ngini = 0.4\nsamples = 3\nvalue = [2, 1]\nclass = Not churn", fillcolor="#f2c09c"] ;
31 -> 35 ;
36 [label="gini = 0.0\nsamples = 2\nvalue = [2, 0]\nclass = Not churn", fillcolor="#e58139"] ;
35 -> 36 ;
37 [label="gini = 0.0\nsamples = 1\nvalue = [0, 1]\nclass = Churn", fillcolor="#399de5"] ;
35 -> 37 ;
38 [label="tenure <= 42.5\ngini = 0.5\nsamples = 2\nvalue = [1, 1]\nclass = Not churn", fillcolor="#ffffff"] ;
30 -> 38 ;
39 [label="gini = 0.0\nsamples = 1\nvalue = [0, 1]\nclass = Churn", fillcolor="#399de5"] ;
38 -> 39 ;
40 [label="gini = 0.0\nsamples = 1\nvalue = [1, 0]\nclass = Not churn", fillcolor="#e58139"] ;
38 -> 40 ;
41 [label="gini = 0.0\nsamples = 80\nvalue = [80, 0]\nclass = Not churn", fillcolor="#e58139"] ;
13 -> 41 ;
42 [label="MonthlyCharges <= 94.4\ngini = 0.2\nsamples = 67\nvalue = [60, 7]\nclass = Not churn", fillcolor="#e89050"] ;
4 -> 42 ;
43 [label="gender <= 0.5\ngini = 0.2\nsamples = 66\nvalue = [60, 6]\nclass = Not churn", fillcolor="#e88e4d"] ;
42 -> 43 ;
44 [label="gini = 0.0\nsamples = 26\nvalue = [26, 0]\nclass = Not churn", fillcolor="#e58139"] ;
43 -> 44 ;
45 [label="TechSupport <= 0.5\ngini = 0.3\nsamples = 40\nvalue = [34, 6]\nclass = Not churn", fillcolor="#ea975c"] ;
43 -> 45 ;
46 [label="OnlineSecurity <= 0.5\ngini = 0.4\nsamples = 22\nvalue = [17, 5]\nclass = Not churn", fillcolor="#eda673"] ;
45 -> 46 ;
47 [label="DeviceProtection <= 0.5\ngini = 0.3\nsamples = 19\nvalue = [16, 3]\nclass = Not churn", fillcolor="#ea995e"] ;
46 -> 47 ;
48 [label="MonthlyCharges <= 22.5\ngini = 0.1\nsamples = 14\nvalue = [13, 1]\nclass = Not churn", fillcolor="#e78b48"] ;
47 -> 48 ;
49 [label="MonthlyCharges <= 20.3\ngini = 0.3\nsamples = 5\nvalue = [4, 1]\nclass = Not churn", fillcolor="#eca06a"] ;
48 -> 49 ;
50 [label="gini = 0.0\nsamples = 4\nvalue = [4, 0]\nclass = Not churn", fillcolor="#e58139"] ;
49 -> 50 ;
51 [label="gini = 0.0\nsamples = 1\nvalue = [0, 1]\nclass = Churn", fillcolor="#399de5"] ;
49 -> 51 ;
52 [label="gini = 0.0\nsamples = 9\nvalue = [9, 0]\nclass = Not churn", fillcolor="#e58139"] ;
48 -> 52 ;
53 [label="MonthlyCharges <= 88.9\ngini = 0.5\nsamples = 5\nvalue = [3, 2]\nclass = Not churn", fillcolor="#f6d5bd"] ;
47 -> 53 ;
54 [label="MonthlyCharges <= 85.1\ngini = 0.4\nsamples = 3\nvalue = [1, 2]\nclass = Churn", fillcolor="#9ccef2"] ;
53 -> 54 ;
55 [label="gini = 0.0\nsamples = 1\nvalue = [1, 0]\nclass = Not churn", fillcolor="#e58139"] ;
54 -> 55 ;
56 [label="gini = 0.0\nsamples = 2\nvalue = [0, 2]\nclass = Churn", fillcolor="#399de5"] ;
54 -> 56 ;
57 [label="gini = 0.0\nsamples = 2\nvalue = [2, 0]\nclass = Not churn", fillcolor="#e58139"] ;
53 -> 57 ;
58 [label="tenure <= 46.0\ngini = 0.4\nsamples = 3\nvalue = [1, 2]\nclass = Churn", fillcolor="#9ccef2"] ;
46 -> 58 ;
59 [label="gini = 0.0\nsamples = 2\nvalue = [0, 2]\nclass = Churn", fillcolor="#399de5"] ;
58 -> 59 ;
60 [label="gini = 0.0\nsamples = 1\nvalue = [1, 0]\nclass = Not churn", fillcolor="#e58139"] ;
58 -> 60 ;
61 [label="SeniorCitizen <= 0.5\ngini = 0.1\nsamples = 18\nvalue = [17, 1]\nclass = Not churn", fillcolor="#e78845"] ;
45 -> 61 ;
62 [label="gini = 0.0\nsamples = 15\nvalue = [15, 0]\nclass = Not churn", fillcolor="#e58139"] ;
61 -> 62 ;
63 [label="DeviceProtection <= 0.5\ngini = 0.4\nsamples = 3\nvalue = [2, 1]\nclass = Not churn", fillcolor="#f2c09c"] ;
61 -> 63 ;
64 [label="gini = 0.0\nsamples = 1\nvalue = [0, 1]\nclass = Churn", fillcolor="#399de5"] ;
63 -> 64 ;
65 [label="gini = 0.0\nsamples = 2\nvalue = [2, 0]\nclass = Not churn", fillcolor="#e58139"] ;
63 -> 65 ;
66 [label="gini = 0.0\nsamples = 1\nvalue = [0, 1]\nclass = Churn", fillcolor="#399de5"] ;
42 -> 66 ;
67 [label="TotalCharges <= 6321.2\ngini = 0.2\nsamples = 194\nvalue = [167, 27]\nclass = Not churn", fillcolor="#e99559"] ;
3 -> 67 ;
68 [label="MonthlyCharges <= 90.6\ngini = 0.2\nsamples = 193\nvalue = [167, 26]\nclass = Not churn", fillcolor="#e99558"] ;
67 -> 68 ;
69 [label="TechSupport <= 0.5\ngini = 0.3\nsamples = 169\nvalue = [143, 26]\nclass = Not churn", fillcolor="#ea985d"] ;
68 -> 69 ;
70 [label="Partner <= 0.5\ngini = 0.3\nsamples = 78\nvalue = [61, 17]\nclass = Not churn", fillcolor="#eca470"] ;
69 -> 70 ;
71 [label="MonthlyCharges <= 47.1\ngini = 0.2\nsamples = 34\nvalue = [31, 3]\nclass = Not churn", fillcolor="#e88d4c"] ;
70 -> 71 ;
72 [label="PaperlessBilling <= 0.5\ngini = 0.4\nsamples = 3\nvalue = [1, 2]\nclass = Churn", fillcolor="#9ccef2"] ;
71 -> 72 ;
73 [label="gini = 0.0\nsamples = 1\nvalue = [1, 0]\nclass = Not churn", fillcolor="#e58139"] ;
72 -> 73 ;
74 [label="gini = 0.0\nsamples = 2\nvalue = [0, 2]\nclass = Churn", fillcolor="#399de5"] ;
72 -> 74 ;
75 [label="PaymentMethod_Mailed check <= 0.5\ngini = 0.1\nsamples = 31\nvalue = [30, 1]\nclass = Not churn", fillcolor="#e68540"] ;
71 -> 75 ;
76 [label="gini = 0.0\nsamples = 26\nvalue = [26, 0]\nclass = Not churn", fillcolor="#e58139"] ;
75 -> 76 ;
77 [label="OnlineBackup <= 0.5\ngini = 0.3\nsamples = 5\nvalue = [4, 1]\nclass = Not churn", fillcolor="#eca06a"] ;
75 -> 77 ;
78 [label="gini = 0.0\nsamples = 4\nvalue = [4, 0]\nclass = Not churn", fillcolor="#e58139"] ;
77 -> 78 ;
79 [label="gini = 0.0\nsamples = 1\nvalue = [0, 1]\nclass = Churn", fillcolor="#399de5"] ;
77 -> 79 ;
80 [label="TotalCharges <= 3907.8\ngini = 0.4\nsamples = 44\nvalue = [30, 14]\nclass = Not churn", fillcolor="#f1bc95"] ;
70 -> 80 ;
81 [label="tenure <= 26.0\ngini = 0.4\nsamples = 35\nvalue = [27, 8]\nclass = Not churn", fillcolor="#eda674"] ;
80 -> 81 ;
82 [label="PaperlessBilling <= 0.5\ngini = 0.5\nsamples = 11\nvalue = [6, 5]\nclass = Not churn", fillcolor="#fbeade"] ;
81 -> 82 ;
83 [label="TotalCharges <= 936.0\ngini = 0.3\nsamples = 6\nvalue = [5, 1]\nclass = Not churn", fillcolor="#ea9a61"] ;
82 -> 83 ;
84 [label="gini = 0.0\nsamples = 1\nvalue = [0, 1]\nclass = Churn", fillcolor="#399de5"] ;
83 -> 84 ;
85 [label="gini = 0.0\nsamples = 5\nvalue = [5, 0]\nclass = Not churn", fillcolor="#e58139"] ;
83 -> 85 ;
86 [label="tenure <= 11.5\ngini = 0.3\nsamples = 5\nvalue = [1, 4]\nclass = Churn", fillcolor="#6ab6ec"] ;
82 -> 86 ;
87 [label="gini = 0.0\nsamples = 1\nvalue = [1, 0]\nclass = Not churn", fillcolor="#e58139"] ;
86 -> 87 ;
88 [label="gini = 0.0\nsamples = 4\nvalue = [0, 4]\nclass = Churn", fillcolor="#399de5"] ;
86 -> 88 ;
89 [label="TotalCharges <= 2956.5\ngini = 0.2\nsamples = 24\nvalue = [21, 3]\nclass = Not churn", fillcolor="#e99355"] ;
81 -> 89 ;
90 [label="gini = 0.0\nsamples = 14\nvalue = [14, 0]\nclass = Not churn", fillcolor="#e58139"] ;
89 -> 90 ;
91 [label="TotalCharges <= 3298.1\ngini = 0.4\nsamples = 10\nvalue = [7, 3]\nclass = Not churn", fillcolor="#f0b78e"] ;
89 -> 91 ;
92 [label="gini = 0.0\nsamples = 2\nvalue = [0, 2]\nclass = Churn", fillcolor="#399de5"] ;
91 -> 92 ;
93 [label="PaymentMethod_Credit card (automatic) <= 0.5\ngini = 0.2\nsamples = 8\nvalue = [7, 1]\nclass = Not churn", fillcolor="#e99355"] ;
91 -> 93 ;
94 [label="gini = 0.0\nsamples = 5\nvalue = [5, 0]\nclass = Not churn", fillcolor="#e58139"] ;
93 -> 94 ;
95 [label="Dependents <= 0.5\ngini = 0.4\nsamples = 3\nvalue = [2, 1]\nclass = Not churn", fillcolor="#f2c09c"] ;
93 -> 95 ;
96 [label="gini = 0.0\nsamples = 1\nvalue = [0, 1]\nclass = Churn", fillcolor="#399de5"] ;
95 -> 96 ;
97 [label="gini = 0.0\nsamples = 2\nvalue = [2, 0]\nclass = Not churn", fillcolor="#e58139"] ;
95 -> 97 ;
98 [label="MultipleLines_Yes <= 0.5\ngini = 0.4\nsamples = 9\nvalue = [3, 6]\nclass = Churn", fillcolor="#9ccef2"] ;
80 -> 98 ;
99 [label="tenure <= 56.5\ngini = 0.5\nsamples = 5\nvalue = [3, 2]\nclass = Not churn", fillcolor="#f6d5bd"] ;
98 -> 99 ;
100 [label="gini = 0.0\nsamples = 2\nvalue = [2, 0]\nclass = Not churn", fillcolor="#e58139"] ;
99 -> 100 ;
101 [label="tenure <= 68.0\ngini = 0.4\nsamples = 3\nvalue = [1, 2]\nclass = Churn", fillcolor="#9ccef2"] ;
99 -> 101 ;
102 [label="gini = 0.0\nsamples = 2\nvalue = [0, 2]\nclass = Churn", fillcolor="#399de5"] ;
101 -> 102 ;
103 [label="gini = 0.0\nsamples = 1\nvalue = [1, 0]\nclass = Not churn", fillcolor="#e58139"] ;
101 -> 103 ;
104 [label="gini = 0.0\nsamples = 4\nvalue = [0, 4]\nclass = Churn", fillcolor="#399de5"] ;
98 -> 104 ;
105 [label="SeniorCitizen <= 0.5\ngini = 0.2\nsamples = 91\nvalue = [82, 9]\nclass = Not churn", fillcolor="#e88f4f"] ;
69 -> 105 ;
106 [label="TotalCharges <= 3185.9\ngini = 0.1\nsamples = 87\nvalue = [80, 7]\nclass = Not churn", fillcolor="#e78c4a"] ;
105 -> 106 ;
107 [label="TotalCharges <= 3099.4\ngini = 0.2\nsamples = 49\nvalue = [42, 7]\nclass = Not churn", fillcolor="#e9965a"] ;
106 -> 107 ;
108 [label="TotalCharges <= 2351.6\ngini = 0.2\nsamples = 46\nvalue = [42, 4]\nclass = Not churn", fillcolor="#e78d4c"] ;
107 -> 108 ;
109 [label="gini = 0.0\nsamples = 29\nvalue = [29, 0]\nclass = Not churn", fillcolor="#e58139"] ;
108 -> 109 ;
110 [label="TotalCharges <= 2426.8\ngini = 0.4\nsamples = 17\nvalue = [13, 4]\nclass = Not churn", fillcolor="#eda876"] ;
108 -> 110 ;
111 [label="gini = 0.0\nsamples = 2\nvalue = [0, 2]\nclass = Churn", fillcolor="#399de5"] ;
110 -> 111 ;
112 [label="OnlineBackup <= 0.5\ngini = 0.2\nsamples = 15\nvalue = [13, 2]\nclass = Not churn", fillcolor="#e99457"] ;
110 -> 112 ;
113 [label="gini = 0.0\nsamples = 10\nvalue = [10, 0]\nclass = Not churn", fillcolor="#e58139"] ;
112 -> 113 ;
114 [label="MultipleLines_No <= 0.5\ngini = 0.5\nsamples = 5\nvalue = [3, 2]\nclass = Not churn", fillcolor="#f6d5bd"] ;
112 -> 114 ;
115 [label="gini = 0.0\nsamples = 3\nvalue = [3, 0]\nclass = Not churn", fillcolor="#e58139"] ;
114 -> 115 ;
116 [label="gini = 0.0\nsamples = 2\nvalue = [0, 2]\nclass = Churn", fillcolor="#399de5"] ;
114 -> 116 ;
117 [label="gini = 0.0\nsamples = 3\nvalue = [0, 3]\nclass = Churn", fillcolor="#399de5"] ;
107 -> 117 ;
118 [label="gini = 0.0\nsamples = 38\nvalue = [38, 0]\nclass = Not churn", fillcolor="#e58139"] ;
106 -> 118 ;
119 [label="MultipleLines_No <= 0.5\ngini = 0.5\nsamples = 4\nvalue = [2, 2]\nclass = Not churn", fillcolor="#ffffff"] ;
105 -> 119 ;
120 [label="gini = 0.0\nsamples = 2\nvalue = [0, 2]\nclass = Churn", fillcolor="#399de5"] ;
119 -> 120 ;
121 [label="gini = 0.0\nsamples = 2\nvalue = [2, 0]\nclass = Not churn", fillcolor="#e58139"] ;
119 -> 121 ;
122 [label="gini = 0.0\nsamples = 24\nvalue = [24, 0]\nclass = Not churn", fillcolor="#e58139"] ;
68 -> 122 ;
123 [label="gini = 0.0\nsamples = 1\nvalue = [0, 1]\nclass = Churn", fillcolor="#399de5"] ;
67 -> 123 ;
124 [label="PaymentMethod_Electronic check <= 0.5\ngini = 0.0\nsamples = 762\nvalue = [750, 12]\nclass = Not churn", fillcolor="#e5833c"] ;
2 -> 124 ;
125 [label="MonthlyCharges <= 92.2\ngini = 0.0\nsamples = 721\nvalue = [712, 9]\nclass = Not churn", fillcolor="#e5833c"] ;
124 -> 125 ;
126 [label="tenure <= 64.5\ngini = 0.0\nsamples = 709\nvalue = [701, 8]\nclass = Not churn", fillcolor="#e5823b"] ;
125 -> 126 ;
127 [label="TotalCharges <= 690.7\ngini = 0.0\nsamples = 412\nvalue = [404, 8]\nclass = Not churn", fillcolor="#e6833d"] ;
126 -> 127 ;
128 [label="gini = 0.0\nsamples = 91\nvalue = [91, 0]\nclass = Not churn", fillcolor="#e58139"] ;
127 -> 128 ;
129 [label="TotalCharges <= 692.2\ngini = 0.0\nsamples = 321\nvalue = [313, 8]\nclass = Not churn", fillcolor="#e6843e"] ;
127 -> 129 ;
130 [label="gini = 0.0\nsamples = 1\nvalue = [0, 1]\nclass = Churn", fillcolor="#399de5"] ;
129 -> 130 ;
131 [label="TotalCharges <= 740.9\ngini = 0.0\nsamples = 320\nvalue = [313, 7]\nclass = Not churn", fillcolor="#e6843d"] ;
129 -> 131 ;
132 [label="TotalCharges <= 739.8\ngini = 0.2\nsamples = 9\nvalue = [8, 1]\nclass = Not churn", fillcolor="#e89152"] ;
131 -> 132 ;
133 [label="gini = 0.0\nsamples = 8\nvalue = [8, 0]\nclass = Not churn", fillcolor="#e58139"] ;
132 -> 133 ;
134 [label="gini = 0.0\nsamples = 1\nvalue = [0, 1]\nclass = Churn", fillcolor="#399de5"] ;
132 -> 134 ;
135 [label="tenure <= 52.5\ngini = 0.0\nsamples = 311\nvalue = [305, 6]\nclass = Not churn", fillcolor="#e6833d"] ;
131 -> 135 ;
136 [label="TotalCharges <= 2435.0\ngini = 0.0\nsamples = 158\nvalue = [157, 1]\nclass = Not churn", fillcolor="#e5823a"] ;
135 -> 136 ;
137 [label="gini = 0.0\nsamples = 116\nvalue = [116, 0]\nclass = Not churn", fillcolor="#e58139"] ;
136 -> 137 ;
138 [label="TotalCharges <= 2465.9\ngini = 0.0\nsamples = 42\nvalue = [41, 1]\nclass = Not churn", fillcolor="#e6843e"] ;
136 -> 138 ;
139 [label="gini = 0.0\nsamples = 1\nvalue = [0, 1]\nclass = Churn", fillcolor="#399de5"] ;
138 -> 139 ;
140 [label="gini = 0.0\nsamples = 41\nvalue = [41, 0]\nclass = Not churn", fillcolor="#e58139"] ;
138 -> 140 ;
141 [label="TotalCharges <= 1101.0\ngini = 0.1\nsamples = 153\nvalue = [148, 5]\nclass = Not churn", fillcolor="#e68540"] ;
135 -> 141 ;
142 [label="tenure <= 58.5\ngini = 0.2\nsamples = 14\nvalue = [12, 2]\nclass = Not churn", fillcolor="#e9965a"] ;
141 -> 142 ;
143 [label="tenure <= 53.5\ngini = 0.1\nsamples = 13\nvalue = [12, 1]\nclass = Not churn", fillcolor="#e78c49"] ;
142 -> 143 ;
144 [label="TotalCharges <= 1050.4\ngini = 0.4\nsamples = 4\nvalue = [3, 1]\nclass = Not churn", fillcolor="#eeab7b"] ;
143 -> 144 ;
145 [label="gini = 0.0\nsamples = 3\nvalue = [3, 0]\nclass = Not churn", fillcolor="#e58139"] ;
144 -> 145 ;
146 [label="gini = 0.0\nsamples = 1\nvalue = [0, 1]\nclass = Churn", fillcolor="#399de5"] ;
144 -> 146 ;
147 [label="gini = 0.0\nsamples = 9\nvalue = [9, 0]\nclass = Not churn", fillcolor="#e58139"] ;
143 -> 147 ;
148 [label="gini = 0.0\nsamples = 1\nvalue = [0, 1]\nclass = Churn", fillcolor="#399de5"] ;
142 -> 148 ;
149 [label="SeniorCitizen <= 0.5\ngini = 0.0\nsamples = 139\nvalue = [136, 3]\nclass = Not churn", fillcolor="#e6843d"] ;
141 -> 149 ;
150 [label="tenure <= 56.5\ngini = 0.0\nsamples = 129\nvalue = [127, 2]\nclass = Not churn", fillcolor="#e5833c"] ;
149 -> 150 ;
151 [label="tenure <= 54.5\ngini = 0.1\nsamples = 30\nvalue = [28, 2]\nclass = Not churn", fillcolor="#e78a47"] ;
150 -> 151 ;
152 [label="gini = 0.0\nsamples = 16\nvalue = [16, 0]\nclass = Not churn", fillcolor="#e58139"] ;
151 -> 152 ;
153 [label="gini = 0.2\nsamples = 14\nvalue = [12, 2]\nclass = Not churn", fillcolor="#e9965a"] ;
151 -> 153 ;
154 [label="gini = 0.0\nsamples = 99\nvalue = [99, 0]\nclass = Not churn", fillcolor="#e58139"] ;
150 -> 154 ;
155 [label="tenure <= 63.0\ngini = 0.2\nsamples = 10\nvalue = [9, 1]\nclass = Not churn", fillcolor="#e88f4f"] ;
149 -> 155 ;
156 [label="gini = 0.0\nsamples = 8\nvalue = [8, 0]\nclass = Not churn", fillcolor="#e58139"] ;
155 -> 156 ;
157 [label="InternetService_No <= 0.5\ngini = 0.5\nsamples = 2\nvalue = [1, 1]\nclass = Not churn", fillcolor="#ffffff"] ;
155 -> 157 ;
158 [label="gini = 0.0\nsamples = 1\nvalue = [0, 1]\nclass = Churn", fillcolor="#399de5"] ;
157 -> 158 ;
159 [label="gini = 0.0\nsamples = 1\nvalue = [1, 0]\nclass = Not churn", fillcolor="#e58139"] ;
157 -> 159 ;
160 [label="gini = 0.0\nsamples = 297\nvalue = [297, 0]\nclass = Not churn", fillcolor="#e58139"] ;
126 -> 160 ;
161 [label="MonthlyCharges <= 92.5\ngini = 0.2\nsamples = 12\nvalue = [11, 1]\nclass = Not churn", fillcolor="#e78c4b"] ;
125 -> 161 ;
162 [label="gini = 0.0\nsamples = 1\nvalue = [0, 1]\nclass = Churn", fillcolor="#399de5"] ;
161 -> 162 ;
163 [label="gini = 0.0\nsamples = 11\nvalue = [11, 0]\nclass = Not churn", fillcolor="#e58139"] ;
161 -> 163 ;
164 [label="MultipleLines_No phone service <= 0.5\ngini = 0.1\nsamples = 41\nvalue = [38, 3]\nclass = Not churn", fillcolor="#e78b49"] ;
124 -> 164 ;
165 [label="TotalCharges <= 5262.3\ngini = 0.1\nsamples = 32\nvalue = [31, 1]\nclass = Not churn", fillcolor="#e6853f"] ;
164 -> 165 ;
166 [label="gini = 0.0\nsamples = 20\nvalue = [20, 0]\nclass = Not churn", fillcolor="#e58139"] ;
165 -> 166 ;
167 [label="TotalCharges <= 5311.8\ngini = 0.2\nsamples = 12\nvalue = [11, 1]\nclass = Not churn", fillcolor="#e78c4b"] ;
165 -> 167 ;
168 [label="gini = 0.0\nsamples = 1\nvalue = [0, 1]\nclass = Churn", fillcolor="#399de5"] ;
167 -> 168 ;
169 [label="gini = 0.0\nsamples = 11\nvalue = [11, 0]\nclass = Not churn", fillcolor="#e58139"] ;
167 -> 169 ;
170 [label="tenure <= 69.5\ngini = 0.3\nsamples = 9\nvalue = [7, 2]\nclass = Not churn", fillcolor="#eca572"] ;
164 -> 170 ;
171 [label="gini = 0.0\nsamples = 4\nvalue = [4, 0]\nclass = Not churn", fillcolor="#e58139"] ;
170 -> 171 ;
172 [label="OnlineSecurity <= 0.5\ngini = 0.5\nsamples = 5\nvalue = [3, 2]\nclass = Not churn", fillcolor="#f6d5bd"] ;
170 -> 172 ;
173 [label="Dependents <= 0.5\ngini = 0.4\nsamples = 3\nvalue = [1, 2]\nclass = Churn", fillcolor="#9ccef2"] ;
172 -> 173 ;
174 [label="gini = 0.0\nsamples = 2\nvalue = [0, 2]\nclass = Churn", fillcolor="#399de5"] ;
173 -> 174 ;
175 [label="gini = 0.0\nsamples = 1\nvalue = [1, 0]\nclass = Not churn", fillcolor="#e58139"] ;
173 -> 175 ;
176 [label="gini = 0.0\nsamples = 2\nvalue = [2, 0]\nclass = Not churn", fillcolor="#e58139"] ;
172 -> 176 ;
177 [label="tenure <= 59.5\ngini = 0.3\nsamples = 438\nvalue = [366, 72]\nclass = Not churn", fillcolor="#ea9a60"] ;
1 -> 177 ;
178 [label="MonthlyCharges <= 95.6\ngini = 0.4\nsamples = 158\nvalue = [114, 44]\nclass = Not churn", fillcolor="#efb285"] ;
177 -> 178 ;
179 [label="gini = 0.0\nsamples = 3\nvalue = [0, 3]\nclass = Churn", fillcolor="#399de5"] ;
178 -> 179 ;
180 [label="MonthlyCharges <= 103.2\ngini = 0.4\nsamples = 155\nvalue = [114, 41]\nclass = Not churn", fillcolor="#eeae80"] ;
178 -> 180 ;
181 [label="OnlineSecurity <= 0.5\ngini = 0.3\nsamples = 75\nvalue = [61, 14]\nclass = Not churn", fillcolor="#eb9e66"] ;
180 -> 181 ;
182 [label="DeviceProtection <= 0.5\ngini = 0.4\nsamples = 48\nvalue = [35, 13]\nclass = Not churn", fillcolor="#efb083"] ;
181 -> 182 ;
183 [label="tenure <= 40.5\ngini = 0.5\nsamples = 18\nvalue = [10, 8]\nclass = Not churn", fillcolor="#fae6d7"] ;
182 -> 183 ;
184 [label="gini = 0.0\nsamples = 3\nvalue = [0, 3]\nclass = Churn", fillcolor="#399de5"] ;
183 -> 184 ;
185 [label="MonthlyCharges <= 100.2\ngini = 0.4\nsamples = 15\nvalue = [10, 5]\nclass = Not churn", fillcolor="#f2c09c"] ;
183 -> 185 ;
186 [label="PaymentMethod_Electronic check <= 0.5\ngini = 0.3\nsamples = 10\nvalue = [8, 2]\nclass = Not churn", fillcolor="#eca06a"] ;
185 -> 186 ;
187 [label="gini = 0.0\nsamples = 5\nvalue = [5, 0]\nclass = Not churn", fillcolor="#e58139"] ;
186 -> 187 ;
188 [label="MonthlyCharges <= 99.5\ngini = 0.5\nsamples = 5\nvalue = [3, 2]\nclass = Not churn", fillcolor="#f6d5bd"] ;
186 -> 188 ;
189 [label="gender <= 0.5\ngini = 0.4\nsamples = 4\nvalue = [3, 1]\nclass = Not churn", fillcolor="#eeab7b"] ;
188 -> 189 ;
190 [label="gini = 0.0\nsamples = 1\nvalue = [0, 1]\nclass = Churn", fillcolor="#399de5"] ;
189 -> 190 ;
191 [label="gini = 0.0\nsamples = 3\nvalue = [3, 0]\nclass = Not churn", fillcolor="#e58139"] ;
189 -> 191 ;
192 [label="gini = 0.0\nsamples = 1\nvalue = [0, 1]\nclass = Churn", fillcolor="#399de5"] ;
188 -> 192 ;
193 [label="PaymentMethod_Electronic check <= 0.5\ngini = 0.5\nsamples = 5\nvalue = [2, 3]\nclass = Churn", fillcolor="#bddef6"] ;
185 -> 193 ;
194 [label="gini = 0.0\nsamples = 3\nvalue = [0, 3]\nclass = Churn", fillcolor="#399de5"] ;
193 -> 194 ;
195 [label="gini = 0.0\nsamples = 2\nvalue = [2, 0]\nclass = Not churn", fillcolor="#e58139"] ;
193 -> 195 ;
196 [label="MonthlyCharges <= 96.5\ngini = 0.3\nsamples = 30\nvalue = [25, 5]\nclass = Not churn", fillcolor="#ea9a61"] ;
182 -> 196 ;
197 [label="PaymentMethod_Credit card (automatic) <= 0.5\ngini = 0.4\nsamples = 3\nvalue = [1, 2]\nclass = Churn", fillcolor="#9ccef2"] ;
196 -> 197 ;
198 [label="gini = 0.0\nsamples = 2\nvalue = [0, 2]\nclass = Churn", fillcolor="#399de5"] ;
197 -> 198 ;
199 [label="gini = 0.0\nsamples = 1\nvalue = [1, 0]\nclass = Not churn", fillcolor="#e58139"] ;
197 -> 199 ;
200 [label="TotalCharges <= 5925.6\ngini = 0.2\nsamples = 27\nvalue = [24, 3]\nclass = Not churn", fillcolor="#e89152"] ;
196 -> 200 ;
201 [label="Partner <= 0.5\ngini = 0.1\nsamples = 26\nvalue = [24, 2]\nclass = Not churn", fillcolor="#e78c49"] ;
200 -> 201 ;
202 [label="MonthlyCharges <= 101.7\ngini = 0.3\nsamples = 13\nvalue = [11, 2]\nclass = Not churn", fillcolor="#ea985d"] ;
201 -> 202 ;
203 [label="TotalCharges <= 5091.8\ngini = 0.2\nsamples = 11\nvalue = [10, 1]\nclass = Not churn", fillcolor="#e88e4d"] ;
202 -> 203 ;
204 [label="gini = 0.0\nsamples = 8\nvalue = [8, 0]\nclass = Not churn", fillcolor="#e58139"] ;
203 -> 204 ;
205 [label="MonthlyCharges <= 100.0\ngini = 0.4\nsamples = 3\nvalue = [2, 1]\nclass = Not churn", fillcolor="#f2c09c"] ;
203 -> 205 ;
206 [label="gini = 0.0\nsamples = 2\nvalue = [2, 0]\nclass = Not churn", fillcolor="#e58139"] ;
205 -> 206 ;
207 [label="gini = 0.0\nsamples = 1\nvalue = [0, 1]\nclass = Churn", fillcolor="#399de5"] ;
205 -> 207 ;
208 [label="PaymentMethod_Electronic check <= 0.5\ngini = 0.5\nsamples = 2\nvalue = [1, 1]\nclass = Not churn", fillcolor="#ffffff"] ;
202 -> 208 ;
209 [label="gini = 0.0\nsamples = 1\nvalue = [0, 1]\nclass = Churn", fillcolor="#399de5"] ;
208 -> 209 ;
210 [label="gini = 0.0\nsamples = 1\nvalue = [1, 0]\nclass = Not churn", fillcolor="#e58139"] ;
208 -> 210 ;
211 [label="gini = 0.0\nsamples = 13\nvalue = [13, 0]\nclass = Not churn", fillcolor="#e58139"] ;
201 -> 211 ;
212 [label="gini = 0.0\nsamples = 1\nvalue = [0, 1]\nclass = Churn", fillcolor="#399de5"] ;
200 -> 212 ;
213 [label="TotalCharges <= 3778.2\ngini = 0.1\nsamples = 27\nvalue = [26, 1]\nclass = Not churn", fillcolor="#e68641"] ;
181 -> 213 ;
214 [label="TotalCharges <= 3418.4\ngini = 0.4\nsamples = 4\nvalue = [3, 1]\nclass = Not churn", fillcolor="#eeab7b"] ;
213 -> 214 ;
215 [label="gini = 0.0\nsamples = 3\nvalue = [3, 0]\nclass = Not churn", fillcolor="#e58139"] ;
214 -> 215 ;
216 [label="gini = 0.0\nsamples = 1\nvalue = [0, 1]\nclass = Churn", fillcolor="#399de5"] ;
214 -> 216 ;
217 [label="gini = 0.0\nsamples = 23\nvalue = [23, 0]\nclass = Not churn", fillcolor="#e58139"] ;
213 -> 217 ;
218 [label="MonthlyCharges <= 106.1\ngini = 0.4\nsamples = 80\nvalue = [53, 27]\nclass = Not churn", fillcolor="#f2c19e"] ;
180 -> 218 ;
219 [label="OnlineBackup <= 0.5\ngini = 0.5\nsamples = 26\nvalue = [12, 14]\nclass = Churn", fillcolor="#e3f1fb"] ;
218 -> 219 ;
220 [label="TotalCharges <= 5560.1\ngini = 0.4\nsamples = 11\nvalue = [8, 3]\nclass = Not churn", fillcolor="#efb083"] ;
219 -> 220 ;
221 [label="gini = 0.0\nsamples = 7\nvalue = [7, 0]\nclass = Not churn", fillcolor="#e58139"] ;
220 -> 221 ;
222 [label="MonthlyCharges <= 104.9\ngini = 0.4\nsamples = 4\nvalue = [1, 3]\nclass = Churn", fillcolor="#7bbeee"] ;
220 -> 222 ;
223 [label="gini = 0.0\nsamples = 3\nvalue = [0, 3]\nclass = Churn", fillcolor="#399de5"] ;
222 -> 223 ;
224 [label="gini = 0.0\nsamples = 1\nvalue = [1, 0]\nclass = Not churn", fillcolor="#e58139"] ;
222 -> 224 ;
225 [label="MonthlyCharges <= 104.5\ngini = 0.4\nsamples = 15\nvalue = [4, 11]\nclass = Churn", fillcolor="#81c1ee"] ;
219 -> 225 ;
226 [label="TechSupport <= 0.5\ngini = 0.5\nsamples = 5\nvalue = [3, 2]\nclass = Not churn", fillcolor="#f6d5bd"] ;
225 -> 226 ;
227 [label="MonthlyCharges <= 103.8\ngini = 0.4\nsamples = 3\nvalue = [1, 2]\nclass = Churn", fillcolor="#9ccef2"] ;
226 -> 227 ;
228 [label="gini = 0.0\nsamples = 2\nvalue = [0, 2]\nclass = Churn", fillcolor="#399de5"] ;
227 -> 228 ;
229 [label="gini = 0.0\nsamples = 1\nvalue = [1, 0]\nclass = Not churn", fillcolor="#e58139"] ;
227 -> 229 ;
230 [label="gini = 0.0\nsamples = 2\nvalue = [2, 0]\nclass = Not churn", fillcolor="#e58139"] ;
226 -> 230 ;
231 [label="TotalCharges <= 5919.2\ngini = 0.2\nsamples = 10\nvalue = [1, 9]\nclass = Churn", fillcolor="#4fa8e8"] ;
225 -> 231 ;
232 [label="gini = 0.0\nsamples = 9\nvalue = [0, 9]\nclass = Churn", fillcolor="#399de5"] ;
231 -> 232 ;
233 [label="gini = 0.0\nsamples = 1\nvalue = [1, 0]\nclass = Not churn", fillcolor="#e58139"] ;
231 -> 233 ;
234 [label="SeniorCitizen <= 0.5\ngini = 0.4\nsamples = 54\nvalue = [41, 13]\nclass = Not churn", fillcolor="#eda978"] ;
218 -> 234 ;
235 [label="TotalCharges <= 5291.8\ngini = 0.3\nsamples = 46\nvalue = [37, 9]\nclass = Not churn", fillcolor="#eba069"] ;
234 -> 235 ;
236 [label="gini = 0.0\nsamples = 12\nvalue = [12, 0]\nclass = Not churn", fillcolor="#e58139"] ;
235 -> 236 ;
237 [label="gender <= 0.5\ngini = 0.4\nsamples = 34\nvalue = [25, 9]\nclass = Not churn", fillcolor="#eeae80"] ;
235 -> 237 ;
238 [label="tenure <= 50.5\ngini = 0.5\nsamples = 18\nvalue = [11, 7]\nclass = Not churn", fillcolor="#f6d1b7"] ;
237 -> 238 ;
239 [label="gini = 0.0\nsamples = 3\nvalue = [0, 3]\nclass = Churn", fillcolor="#399de5"] ;
238 -> 239 ;
240 [label="MonthlyCharges <= 109.3\ngini = 0.4\nsamples = 15\nvalue = [11, 4]\nclass = Not churn", fillcolor="#eeaf81"] ;
238 -> 240 ;
241 [label="gini = 0.0\nsamples = 6\nvalue = [6, 0]\nclass = Not churn", fillcolor="#e58139"] ;
240 -> 241 ;
242 [label="TotalCharges <= 5864.3\ngini = 0.5\nsamples = 9\nvalue = [5, 4]\nclass = Not churn", fillcolor="#fae6d7"] ;
240 -> 242 ;
243 [label="gini = 0.0\nsamples = 3\nvalue = [3, 0]\nclass = Not churn", fillcolor="#e58139"] ;
242 -> 243 ;
244 [label="PaymentMethod_Mailed check <= 0.5\ngini = 0.4\nsamples = 6\nvalue = [2, 4]\nclass = Churn", fillcolor="#9ccef2"] ;
242 -> 244 ;
245 [label="MonthlyCharges <= 110.1\ngini = 0.3\nsamples = 5\nvalue = [1, 4]\nclass = Churn", fillcolor="#6ab6ec"] ;
244 -> 245 ;
246 [label="gini = 0.5\nsamples = 2\nvalue = [1, 1]\nclass = Not churn", fillcolor="#ffffff"] ;
245 -> 246 ;
247 [label="gini = 0.0\nsamples = 3\nvalue = [0, 3]\nclass = Churn", fillcolor="#399de5"] ;
245 -> 247 ;
248 [label="gini = 0.0\nsamples = 1\nvalue = [1, 0]\nclass = Not churn", fillcolor="#e58139"] ;
244 -> 248 ;
249 [label="TotalCharges <= 6071.8\ngini = 0.2\nsamples = 16\nvalue = [14, 2]\nclass = Not churn", fillcolor="#e99355"] ;
237 -> 249 ;
250 [label="gini = 0.0\nsamples = 11\nvalue = [11, 0]\nclass = Not churn", fillcolor="#e58139"] ;
249 -> 250 ;
251 [label="MonthlyCharges <= 110.6\ngini = 0.5\nsamples = 5\nvalue = [3, 2]\nclass = Not churn", fillcolor="#f6d5bd"] ;
249 -> 251 ;
252 [label="gini = 0.0\nsamples = 2\nvalue = [0, 2]\nclass = Churn", fillcolor="#399de5"] ;
251 -> 252 ;
253 [label="gini = 0.0\nsamples = 3\nvalue = [3, 0]\nclass = Not churn", fillcolor="#e58139"] ;
251 -> 253 ;
254 [label="MonthlyCharges <= 110.2\ngini = 0.5\nsamples = 8\nvalue = [4, 4]\nclass = Not churn", fillcolor="#ffffff"] ;
234 -> 254 ;
255 [label="MonthlyCharges <= 108.6\ngini = 0.4\nsamples = 6\nvalue = [2, 4]\nclass = Churn", fillcolor="#9ccef2"] ;
254 -> 255 ;
256 [label="TechSupport <= 0.5\ngini = 0.4\nsamples = 3\nvalue = [2, 1]\nclass = Not churn", fillcolor="#f2c09c"] ;
255 -> 256 ;
257 [label="gini = 0.0\nsamples = 2\nvalue = [2, 0]\nclass = Not churn", fillcolor="#e58139"] ;
256 -> 257 ;
258 [label="gini = 0.0\nsamples = 1\nvalue = [0, 1]\nclass = Churn", fillcolor="#399de5"] ;
256 -> 258 ;
259 [label="gini = 0.0\nsamples = 3\nvalue = [0, 3]\nclass = Churn", fillcolor="#399de5"] ;
255 -> 259 ;
260 [label="gini = 0.0\nsamples = 2\nvalue = [2, 0]\nclass = Not churn", fillcolor="#e58139"] ;
254 -> 260 ;
261 [label="TotalCharges <= 7730.7\ngini = 0.2\nsamples = 280\nvalue = [252, 28]\nclass = Not churn", fillcolor="#e88f4f"] ;
177 -> 261 ;
262 [label="TotalCharges <= 7670.2\ngini = 0.2\nsamples = 187\nvalue = [160, 27]\nclass = Not churn", fillcolor="#e9965a"] ;
261 -> 262 ;
263 [label="Partner <= 0.5\ngini = 0.2\nsamples = 178\nvalue = [156, 22]\nclass = Not churn", fillcolor="#e99355"] ;
262 -> 263 ;
264 [label="OnlineBackup <= 0.5\ngini = 0.3\nsamples = 45\nvalue = [35, 10]\nclass = Not churn", fillcolor="#eca572"] ;
263 -> 264 ;
265 [label="PaperlessBilling <= 0.5\ngini = 0.5\nsamples = 11\nvalue = [6, 5]\nclass = Not churn", fillcolor="#fbeade"] ;
264 -> 265 ;
266 [label="gini = 0.0\nsamples = 4\nvalue = [4, 0]\nclass = Not churn", fillcolor="#e58139"] ;
265 -> 266 ;
267 [label="SeniorCitizen <= 0.5\ngini = 0.4\nsamples = 7\nvalue = [2, 5]\nclass = Churn", fillcolor="#88c4ef"] ;
265 -> 267 ;
268 [label="gini = 0.0\nsamples = 4\nvalue = [0, 4]\nclass = Churn", fillcolor="#399de5"] ;
267 -> 268 ;
269 [label="TotalCharges <= 6709.1\ngini = 0.4\nsamples = 3\nvalue = [2, 1]\nclass = Not churn", fillcolor="#f2c09c"] ;
267 -> 269 ;
270 [label="gini = 0.0\nsamples = 1\nvalue = [0, 1]\nclass = Churn", fillcolor="#399de5"] ;
269 -> 270 ;
271 [label="gini = 0.0\nsamples = 2\nvalue = [2, 0]\nclass = Not churn", fillcolor="#e58139"] ;
269 -> 271 ;
272 [label="OnlineSecurity <= 0.5\ngini = 0.3\nsamples = 34\nvalue = [29, 5]\nclass = Not churn", fillcolor="#e9975b"] ;
264 -> 272 ;
273 [label="Contract_Two year <= 0.5\ngini = 0.4\nsamples = 19\nvalue = [14, 5]\nclass = Not churn", fillcolor="#eeae80"] ;
272 -> 273 ;
274 [label="PaymentMethod_Credit card (automatic) <= 0.5\ngini = 0.5\nsamples = 12\nvalue = [7, 5]\nclass = Not churn", fillcolor="#f8dbc6"] ;
273 -> 274 ;
275 [label="TotalCharges <= 6280.0\ngini = 0.4\nsamples = 10\nvalue = [7, 3]\nclass = Not churn", fillcolor="#f0b78e"] ;
274 -> 275 ;
276 [label="gini = 0.0\nsamples = 1\nvalue = [0, 1]\nclass = Churn", fillcolor="#399de5"] ;
275 -> 276 ;
277 [label="TotalCharges <= 7114.9\ngini = 0.3\nsamples = 9\nvalue = [7, 2]\nclass = Not churn", fillcolor="#eca572"] ;
275 -> 277 ;
278 [label="gini = 0.0\nsamples = 4\nvalue = [4, 0]\nclass = Not churn", fillcolor="#e58139"] ;
277 -> 278 ;
279 [label="TotalCharges <= 7229.5\ngini = 0.5\nsamples = 5\nvalue = [3, 2]\nclass = Not churn", fillcolor="#f6d5bd"] ;
277 -> 279 ;
280 [label="gini = 0.0\nsamples = 2\nvalue = [0, 2]\nclass = Churn", fillcolor="#399de5"] ;
279 -> 280 ;
281 [label="gini = 0.0\nsamples = 3\nvalue = [3, 0]\nclass = Not churn", fillcolor="#e58139"] ;
279 -> 281 ;
282 [label="gini = 0.0\nsamples = 2\nvalue = [0, 2]\nclass = Churn", fillcolor="#399de5"] ;
274 -> 282 ;
283 [label="gini = 0.0\nsamples = 7\nvalue = [7, 0]\nclass = Not churn", fillcolor="#e58139"] ;
273 -> 283 ;
284 [label="gini = 0.0\nsamples = 15\nvalue = [15, 0]\nclass = Not churn", fillcolor="#e58139"] ;
272 -> 284 ;
285 [label="MonthlyCharges <= 107.5\ngini = 0.2\nsamples = 133\nvalue = [121, 12]\nclass = Not churn", fillcolor="#e88d4d"] ;
263 -> 285 ;
286 [label="TechSupport <= 0.5\ngini = 0.1\nsamples = 98\nvalue = [92, 6]\nclass = Not churn", fillcolor="#e78946"] ;
285 -> 286 ;
287 [label="MonthlyCharges <= 102.1\ngini = 0.2\nsamples = 59\nvalue = [53, 6]\nclass = Not churn", fillcolor="#e88f4f"] ;
286 -> 287 ;
288 [label="MonthlyCharges <= 98.3\ngini = 0.1\nsamples = 37\nvalue = [35, 2]\nclass = Not churn", fillcolor="#e68844"] ;
287 -> 288 ;
289 [label="MonthlyCharges <= 98.1\ngini = 0.3\nsamples = 13\nvalue = [11, 2]\nclass = Not churn", fillcolor="#ea985d"] ;
288 -> 289 ;
290 [label="StreamingTV <= 0.5\ngini = 0.2\nsamples = 12\nvalue = [11, 1]\nclass = Not churn", fillcolor="#e78c4b"] ;
289 -> 290 ;
291 [label="tenure <= 67.0\ngini = 0.4\nsamples = 4\nvalue = [3, 1]\nclass = Not churn", fillcolor="#eeab7b"] ;
290 -> 291 ;
292 [label="gini = 0.0\nsamples = 3\nvalue = [3, 0]\nclass = Not churn", fillcolor="#e58139"] ;
291 -> 292 ;
293 [label="gini = 0.0\nsamples = 1\nvalue = [0, 1]\nclass = Churn", fillcolor="#399de5"] ;
291 -> 293 ;
294 [label="gini = 0.0\nsamples = 8\nvalue = [8, 0]\nclass = Not churn", fillcolor="#e58139"] ;
290 -> 294 ;
295 [label="gini = 0.0\nsamples = 1\nvalue = [0, 1]\nclass = Churn", fillcolor="#399de5"] ;
289 -> 295 ;
296 [label="gini = 0.0\nsamples = 24\nvalue = [24, 0]\nclass = Not churn", fillcolor="#e58139"] ;
288 -> 296 ;
297 [label="MonthlyCharges <= 102.5\ngini = 0.3\nsamples = 22\nvalue = [18, 4]\nclass = Not churn", fillcolor="#eb9d65"] ;
287 -> 297 ;
298 [label="gini = 0.0\nsamples = 1\nvalue = [0, 1]\nclass = Churn", fillcolor="#399de5"] ;
297 -> 298 ;
299 [label="TotalCharges <= 7006.3\ngini = 0.2\nsamples = 21\nvalue = [18, 3]\nclass = Not churn", fillcolor="#e9965a"] ;
297 -> 299 ;
300 [label="PaymentMethod_Credit card (automatic) <= 0.5\ngini = 0.4\nsamples = 6\nvalue = [4, 2]\nclass = Not churn", fillcolor="#f2c09c"] ;
299 -> 300 ;
301 [label="MonthlyCharges <= 104.0\ngini = 0.3\nsamples = 5\nvalue = [4, 1]\nclass = Not churn", fillcolor="#eca06a"] ;
300 -> 301 ;
302 [label="PaymentMethod_Electronic check <= 0.5\ngini = 0.5\nsamples = 2\nvalue = [1, 1]\nclass = Not churn", fillcolor="#ffffff"] ;
301 -> 302 ;
303 [label="gini = 0.0\nsamples = 1\nvalue = [1, 0]\nclass = Not churn", fillcolor="#e58139"] ;
302 -> 303 ;
304 [label="gini = 0.0\nsamples = 1\nvalue = [0, 1]\nclass = Churn", fillcolor="#399de5"] ;
302 -> 304 ;
305 [label="gini = 0.0\nsamples = 3\nvalue = [3, 0]\nclass = Not churn", fillcolor="#e58139"] ;
301 -> 305 ;
306 [label="gini = 0.0\nsamples = 1\nvalue = [0, 1]\nclass = Churn", fillcolor="#399de5"] ;
300 -> 306 ;
307 [label="MonthlyCharges <= 103.8\ngini = 0.1\nsamples = 15\nvalue = [14, 1]\nclass = Not churn", fillcolor="#e78a47"] ;
299 -> 307 ;
308 [label="OnlineSecurity <= 0.5\ngini = 0.4\nsamples = 4\nvalue = [3, 1]\nclass = Not churn", fillcolor="#eeab7b"] ;
307 -> 308 ;
309 [label="gini = 0.0\nsamples = 1\nvalue = [0, 1]\nclass = Churn", fillcolor="#399de5"] ;
308 -> 309 ;
310 [label="gini = 0.0\nsamples = 3\nvalue = [3, 0]\nclass = Not churn", fillcolor="#e58139"] ;
308 -> 310 ;
311 [label="gini = 0.0\nsamples = 11\nvalue = [11, 0]\nclass = Not churn", fillcolor="#e58139"] ;
307 -> 311 ;
312 [label="gini = 0.0\nsamples = 39\nvalue = [39, 0]\nclass = Not churn", fillcolor="#e58139"] ;
286 -> 312 ;
313 [label="MonthlyCharges <= 107.5\ngini = 0.3\nsamples = 35\nvalue = [29, 6]\nclass = Not churn", fillcolor="#ea9b62"] ;
285 -> 313 ;
314 [label="gini = 0.0\nsamples = 1\nvalue = [0, 1]\nclass = Churn", fillcolor="#399de5"] ;
313 -> 314 ;
315 [label="gender <= 0.5\ngini = 0.3\nsamples = 34\nvalue = [29, 5]\nclass = Not churn", fillcolor="#e9975b"] ;
313 -> 315 ;
316 [label="OnlineBackup <= 0.5\ngini = 0.1\nsamples = 18\nvalue = [17, 1]\nclass = Not churn", fillcolor="#e78845"] ;
315 -> 316 ;
317 [label="MonthlyCharges <= 108.9\ngini = 0.4\nsamples = 3\nvalue = [2, 1]\nclass = Not churn", fillcolor="#f2c09c"] ;
316 -> 317 ;
318 [label="gini = 0.0\nsamples = 1\nvalue = [0, 1]\nclass = Churn", fillcolor="#399de5"] ;
317 -> 318 ;
319 [label="gini = 0.0\nsamples = 2\nvalue = [2, 0]\nclass = Not churn", fillcolor="#e58139"] ;
317 -> 319 ;
320 [label="gini = 0.0\nsamples = 15\nvalue = [15, 0]\nclass = Not churn", fillcolor="#e58139"] ;
316 -> 320 ;
321 [label="PaymentMethod_Bank transfer (automatic) <= 0.5\ngini = 0.4\nsamples = 16\nvalue = [12, 4]\nclass = Not churn", fillcolor="#eeab7b"] ;
315 -> 321 ;
322 [label="MonthlyCharges <= 110.7\ngini = 0.2\nsamples = 9\nvalue = [8, 1]\nclass = Not churn", fillcolor="#e89152"] ;
321 -> 322 ;
323 [label="gini = 0.0\nsamples = 7\nvalue = [7, 0]\nclass = Not churn", fillcolor="#e58139"] ;
322 -> 323 ;
324 [label="Contract_Two year <= 0.5\ngini = 0.5\nsamples = 2\nvalue = [1, 1]\nclass = Not churn", fillcolor="#ffffff"] ;
322 -> 324 ;
325 [label="gini = 0.0\nsamples = 1\nvalue = [0, 1]\nclass = Churn", fillcolor="#399de5"] ;
324 -> 325 ;
326 [label="gini = 0.0\nsamples = 1\nvalue = [1, 0]\nclass = Not churn", fillcolor="#e58139"] ;
324 -> 326 ;
327 [label="MonthlyCharges <= 110.6\ngini = 0.5\nsamples = 7\nvalue = [4, 3]\nclass = Not churn", fillcolor="#f8e0ce"] ;
321 -> 327 ;
328 [label="MonthlyCharges <= 108.1\ngini = 0.4\nsamples = 4\nvalue = [1, 3]\nclass = Churn", fillcolor="#7bbeee"] ;
327 -> 328 ;
329 [label="gini = 0.0\nsamples = 1\nvalue = [1, 0]\nclass = Not churn", fillcolor="#e58139"] ;
328 -> 329 ;
330 [label="gini = 0.0\nsamples = 3\nvalue = [0, 3]\nclass = Churn", fillcolor="#399de5"] ;
328 -> 330 ;
331 [label="gini = 0.0\nsamples = 3\nvalue = [3, 0]\nclass = Not churn", fillcolor="#e58139"] ;
327 -> 331 ;
332 [label="PaymentMethod_Electronic check <= 0.5\ngini = 0.5\nsamples = 9\nvalue = [4, 5]\nclass = Churn", fillcolor="#d7ebfa"] ;
262 -> 332 ;
333 [label="TotalCharges <= 7684.8\ngini = 0.3\nsamples = 5\nvalue = [1, 4]\nclass = Churn", fillcolor="#6ab6ec"] ;
332 -> 333 ;
334 [label="gini = 0.0\nsamples = 1\nvalue = [1, 0]\nclass = Not churn", fillcolor="#e58139"] ;
333 -> 334 ;
335 [label="gini = 0.0\nsamples = 4\nvalue = [0, 4]\nclass = Churn", fillcolor="#399de5"] ;
333 -> 335 ;
336 [label="Contract_One year <= 0.5\ngini = 0.4\nsamples = 4\nvalue = [3, 1]\nclass = Not churn", fillcolor="#eeab7b"] ;
332 -> 336 ;
337 [label="gini = 0.0\nsamples = 3\nvalue = [3, 0]\nclass = Not churn", fillcolor="#e58139"] ;
336 -> 337 ;
338 [label="gini = 0.0\nsamples = 1\nvalue = [0, 1]\nclass = Churn", fillcolor="#399de5"] ;
336 -> 338 ;
339 [label="TotalCharges <= 8678.6\ngini = 0.0\nsamples = 93\nvalue = [92, 1]\nclass = Not churn", fillcolor="#e5823b"] ;
261 -> 339 ;
340 [label="gini = 0.0\nsamples = 92\nvalue = [92, 0]\nclass = Not churn", fillcolor="#e58139"] ;
339 -> 340 ;
341 [label="gini = 0.0\nsamples = 1\nvalue = [0, 1]\nclass = Churn", fillcolor="#399de5"] ;
339 -> 341 ;
342 [label="InternetService_Fiber optic <= 0.5\ngini = 0.5\nsamples = 2143\nvalue = [1246, 897]\nclass = Not churn", fillcolor="#f8dcc8"] ;
0 -> 342 [labeldistance=2.5, labelangle=-45, headlabel="False"] ;
343 [label="tenure <= 5.5\ngini = 0.4\nsamples = 994\nvalue = [728, 266]\nclass = Not churn", fillcolor="#eeaf81"] ;
342 -> 343 ;
344 [label="InternetService_No <= 0.5\ngini = 0.5\nsamples = 427\nvalue = [251, 176]\nclass = Not churn", fillcolor="#f7d9c4"] ;
343 -> 344 ;
345 [label="PaymentMethod_Electronic check <= 0.5\ngini = 0.5\nsamples = 270\nvalue = [139, 131]\nclass = Not churn", fillcolor="#fef8f4"] ;
344 -> 345 ;
346 [label="MonthlyCharges <= 29.7\ngini = 0.5\nsamples = 145\nvalue = [86, 59]\nclass = Not churn", fillcolor="#f7d7c1"] ;
345 -> 346 ;
347 [label="SeniorCitizen <= 0.5\ngini = 0.3\nsamples = 19\nvalue = [16, 3]\nclass = Not churn", fillcolor="#ea995e"] ;
346 -> 347 ;
348 [label="MonthlyCharges <= 24.8\ngini = 0.2\nsamples = 18\nvalue = [16, 2]\nclass = Not churn", fillcolor="#e89152"] ;
347 -> 348 ;
349 [label="TotalCharges <= 24.8\ngini = 0.4\nsamples = 6\nvalue = [4, 2]\nclass = Not churn", fillcolor="#f2c09c"] ;
348 -> 349 ;
350 [label="gini = 0.0\nsamples = 3\nvalue = [3, 0]\nclass = Not churn", fillcolor="#e58139"] ;
349 -> 350 ;
351 [label="tenure <= 4.5\ngini = 0.4\nsamples = 3\nvalue = [1, 2]\nclass = Churn", fillcolor="#9ccef2"] ;
349 -> 351 ;
352 [label="gini = 0.0\nsamples = 2\nvalue = [0, 2]\nclass = Churn", fillcolor="#399de5"] ;
351 -> 352 ;
353 [label="gini = 0.0\nsamples = 1\nvalue = [1, 0]\nclass = Not churn", fillcolor="#e58139"] ;
351 -> 353 ;
354 [label="gini = 0.0\nsamples = 12\nvalue = [12, 0]\nclass = Not churn", fillcolor="#e58139"] ;
348 -> 354 ;
355 [label="gini = 0.0\nsamples = 1\nvalue = [0, 1]\nclass = Churn", fillcolor="#399de5"] ;
347 -> 355 ;
356 [label="StreamingMovies <= 0.5\ngini = 0.5\nsamples = 126\nvalue = [70, 56]\nclass = Not churn", fillcolor="#fae6d7"] ;
346 -> 356 ;
357 [label="DeviceProtection <= 0.5\ngini = 0.5\nsamples = 106\nvalue = [55, 51]\nclass = Not churn", fillcolor="#fdf6f1"] ;
356 -> 357 ;
358 [label="MonthlyCharges <= 50.4\ngini = 0.5\nsamples = 93\nvalue = [52, 41]\nclass = Not churn", fillcolor="#fae4d5"] ;
357 -> 358 ;
359 [label="MonthlyCharges <= 48.6\ngini = 0.5\nsamples = 63\nvalue = [39, 24]\nclass = Not churn", fillcolor="#f5cfb3"] ;
358 -> 359 ;
360 [label="MonthlyCharges <= 45.6\ngini = 0.5\nsamples = 47\nvalue = [24, 23]\nclass = Not churn", fillcolor="#fefaf7"] ;
359 -> 360 ;
361 [label="PaperlessBilling <= 0.5\ngini = 0.5\nsamples = 37\nvalue = [21, 16]\nclass = Not churn", fillcolor="#f9e1d0"] ;
360 -> 361 ;
362 [label="MonthlyCharges <= 30.2\ngini = 0.4\nsamples = 20\nvalue = [14, 6]\nclass = Not churn", fillcolor="#f0b78e"] ;
361 -> 362 ;
363 [label="TotalCharges <= 93.0\ngini = 0.4\nsamples = 4\nvalue = [1, 3]\nclass = Churn", fillcolor="#7bbeee"] ;
362 -> 363 ;
364 [label="gini = 0.0\nsamples = 3\nvalue = [0, 3]\nclass = Churn", fillcolor="#399de5"] ;
363 -> 364 ;
365 [label="gini = 0.0\nsamples = 1\nvalue = [1, 0]\nclass = Not churn", fillcolor="#e58139"] ;
363 -> 365 ;
366 [label="MonthlyCharges <= 44.4\ngini = 0.3\nsamples = 16\nvalue = [13, 3]\nclass = Not churn", fillcolor="#eb9e67"] ;
362 -> 366 ;
367 [label="gini = 0.4\nsamples = 9\nvalue = [6, 3]\nclass = Not churn", fillcolor="#f2c09c"] ;
366 -> 367 ;
368 [label="gini = 0.0\nsamples = 7\nvalue = [7, 0]\nclass = Not churn", fillcolor="#e58139"] ;
366 -> 368 ;
369 [label="MonthlyCharges <= 44.3\ngini = 0.5\nsamples = 17\nvalue = [7, 10]\nclass = Churn", fillcolor="#c4e2f7"] ;
361 -> 369 ;
370 [label="PaymentMethod_Mailed check <= 0.5\ngini = 0.5\nsamples = 8\nvalue = [5, 3]\nclass = Not churn", fillcolor="#f5cdb0"] ;
369 -> 370 ;
371 [label="gini = 0.0\nsamples = 3\nvalue = [3, 0]\nclass = Not churn", fillcolor="#e58139"] ;
370 -> 371 ;
372 [label="gini = 0.5\nsamples = 5\nvalue = [2, 3]\nclass = Churn", fillcolor="#bddef6"] ;
370 -> 372 ;
373 [label="gender <= 0.5\ngini = 0.3\nsamples = 9\nvalue = [2, 7]\nclass = Churn", fillcolor="#72b9ec"] ;
369 -> 373 ;
374 [label="gini = 0.0\nsamples = 6\nvalue = [0, 6]\nclass = Churn", fillcolor="#399de5"] ;
373 -> 374 ;
375 [label="gini = 0.4\nsamples = 3\nvalue = [2, 1]\nclass = Not churn", fillcolor="#f2c09c"] ;
373 -> 375 ;
376 [label="PaperlessBilling <= 0.5\ngini = 0.4\nsamples = 10\nvalue = [3, 7]\nclass = Churn", fillcolor="#8ec7f0"] ;
360 -> 376 ;
377 [label="gini = 0.0\nsamples = 4\nvalue = [0, 4]\nclass = Churn", fillcolor="#399de5"] ;
376 -> 377 ;
378 [label="TotalCharges <= 68.2\ngini = 0.5\nsamples = 6\nvalue = [3, 3]\nclass = Not churn", fillcolor="#ffffff"] ;
376 -> 378 ;
379 [label="TotalCharges <= 45.8\ngini = 0.4\nsamples = 4\nvalue = [1, 3]\nclass = Churn", fillcolor="#7bbeee"] ;
378 -> 379 ;
380 [label="gini = 0.5\nsamples = 2\nvalue = [1, 1]\nclass = Not churn", fillcolor="#ffffff"] ;
379 -> 380 ;
381 [label="gini = 0.0\nsamples = 2\nvalue = [0, 2]\nclass = Churn", fillcolor="#399de5"] ;
379 -> 381 ;
382 [label="gini = 0.0\nsamples = 2\nvalue = [2, 0]\nclass = Not churn", fillcolor="#e58139"] ;
378 -> 382 ;
383 [label="Partner <= 0.5\ngini = 0.1\nsamples = 16\nvalue = [15, 1]\nclass = Not churn", fillcolor="#e78946"] ;
359 -> 383 ;
384 [label="gini = 0.0\nsamples = 13\nvalue = [13, 0]\nclass = Not churn", fillcolor="#e58139"] ;
383 -> 384 ;
385 [label="PaperlessBilling <= 0.5\ngini = 0.4\nsamples = 3\nvalue = [2, 1]\nclass = Not churn", fillcolor="#f2c09c"] ;
383 -> 385 ;
386 [label="gini = 0.0\nsamples = 1\nvalue = [0, 1]\nclass = Churn", fillcolor="#399de5"] ;
385 -> 386 ;
387 [label="gini = 0.0\nsamples = 2\nvalue = [2, 0]\nclass = Not churn", fillcolor="#e58139"] ;
385 -> 387 ;
388 [label="OnlineSecurity <= 0.5\ngini = 0.5\nsamples = 30\nvalue = [13, 17]\nclass = Churn", fillcolor="#d0e8f9"] ;
358 -> 388 ;
389 [label="MonthlyCharges <= 55.2\ngini = 0.4\nsamples = 19\nvalue = [6, 13]\nclass = Churn", fillcolor="#94caf1"] ;
388 -> 389 ;
390 [label="PaymentMethod_Bank transfer (automatic) <= 0.5\ngini = 0.2\nsamples = 14\nvalue = [2, 12]\nclass = Churn", fillcolor="#5aade9"] ;
389 -> 390 ;
391 [label="TechSupport <= 0.5\ngini = 0.1\nsamples = 13\nvalue = [1, 12]\nclass = Churn", fillcolor="#49a5e7"] ;
390 -> 391 ;
392 [label="gini = 0.0\nsamples = 12\nvalue = [0, 12]\nclass = Churn", fillcolor="#399de5"] ;
391 -> 392 ;
393 [label="gini = 0.0\nsamples = 1\nvalue = [1, 0]\nclass = Not churn", fillcolor="#e58139"] ;
391 -> 393 ;
394 [label="gini = 0.0\nsamples = 1\nvalue = [1, 0]\nclass = Not churn", fillcolor="#e58139"] ;
390 -> 394 ;
395 [label="PaperlessBilling <= 0.5\ngini = 0.3\nsamples = 5\nvalue = [4, 1]\nclass = Not churn", fillcolor="#eca06a"] ;
389 -> 395 ;
396 [label="gini = 0.0\nsamples = 1\nvalue = [0, 1]\nclass = Churn", fillcolor="#399de5"] ;
395 -> 396 ;
397 [label="gini = 0.0\nsamples = 4\nvalue = [4, 0]\nclass = Not churn", fillcolor="#e58139"] ;
395 -> 397 ;
398 [label="Dependents <= 0.5\ngini = 0.5\nsamples = 11\nvalue = [7, 4]\nclass = Not churn", fillcolor="#f4c9aa"] ;
388 -> 398 ;
399 [label="MonthlyCharges <= 60.2\ngini = 0.2\nsamples = 7\nvalue = [6, 1]\nclass = Not churn", fillcolor="#e9965a"] ;
398 -> 399 ;
400 [label="gini = 0.0\nsamples = 6\nvalue = [6, 0]\nclass = Not churn", fillcolor="#e58139"] ;
399 -> 400 ;
401 [label="gini = 0.0\nsamples = 1\nvalue = [0, 1]\nclass = Churn", fillcolor="#399de5"] ;
399 -> 401 ;
402 [label="tenure <= 1.5\ngini = 0.4\nsamples = 4\nvalue = [1, 3]\nclass = Churn", fillcolor="#7bbeee"] ;
398 -> 402 ;
403 [label="gender <= 0.5\ngini = 0.5\nsamples = 2\nvalue = [1, 1]\nclass = Not churn", fillcolor="#ffffff"] ;
402 -> 403 ;
404 [label="gini = 0.0\nsamples = 1\nvalue = [1, 0]\nclass = Not churn", fillcolor="#e58139"] ;
403 -> 404 ;
405 [label="gini = 0.0\nsamples = 1\nvalue = [0, 1]\nclass = Churn", fillcolor="#399de5"] ;
403 -> 405 ;
406 [label="gini = 0.0\nsamples = 2\nvalue = [0, 2]\nclass = Churn", fillcolor="#399de5"] ;
402 -> 406 ;
407 [label="OnlineSecurity <= 0.5\ngini = 0.4\nsamples = 13\nvalue = [3, 10]\nclass = Churn", fillcolor="#74baed"] ;
357 -> 407 ;
408 [label="gini = 0.0\nsamples = 7\nvalue = [0, 7]\nclass = Churn", fillcolor="#399de5"] ;
407 -> 408 ;
409 [label="tenure <= 4.0\ngini = 0.5\nsamples = 6\nvalue = [3, 3]\nclass = Not churn", fillcolor="#ffffff"] ;
407 -> 409 ;
410 [label="PaymentMethod_Mailed check <= 0.5\ngini = 0.4\nsamples = 4\nvalue = [3, 1]\nclass = Not churn", fillcolor="#eeab7b"] ;
409 -> 410 ;
411 [label="gini = 0.0\nsamples = 1\nvalue = [0, 1]\nclass = Churn", fillcolor="#399de5"] ;
410 -> 411 ;
412 [label="gini = 0.0\nsamples = 3\nvalue = [3, 0]\nclass = Not churn", fillcolor="#e58139"] ;
410 -> 412 ;
413 [label="gini = 0.0\nsamples = 2\nvalue = [0, 2]\nclass = Churn", fillcolor="#399de5"] ;
409 -> 413 ;
414 [label="TotalCharges <= 59.2\ngini = 0.4\nsamples = 20\nvalue = [15, 5]\nclass = Not churn", fillcolor="#eeab7b"] ;
356 -> 414 ;
415 [label="gini = 0.0\nsamples = 2\nvalue = [0, 2]\nclass = Churn", fillcolor="#399de5"] ;
414 -> 415 ;
416 [label="TotalCharges <= 249.9\ngini = 0.3\nsamples = 18\nvalue = [15, 3]\nclass = Not churn", fillcolor="#ea9a61"] ;
414 -> 416 ;
417 [label="MonthlyCharges <= 65.6\ngini = 0.1\nsamples = 15\nvalue = [14, 1]\nclass = Not churn", fillcolor="#e78a47"] ;
416 -> 417 ;
418 [label="gini = 0.0\nsamples = 11\nvalue = [11, 0]\nclass = Not churn", fillcolor="#e58139"] ;
417 -> 418 ;
419 [label="MonthlyCharges <= 67.3\ngini = 0.4\nsamples = 4\nvalue = [3, 1]\nclass = Not churn", fillcolor="#eeab7b"] ;
417 -> 419 ;
420 [label="gini = 0.0\nsamples = 1\nvalue = [0, 1]\nclass = Churn", fillcolor="#399de5"] ;
419 -> 420 ;
421 [label="gini = 0.0\nsamples = 3\nvalue = [3, 0]\nclass = Not churn", fillcolor="#e58139"] ;
419 -> 421 ;
422 [label="TechSupport <= 0.5\ngini = 0.4\nsamples = 3\nvalue = [1, 2]\nclass = Churn", fillcolor="#9ccef2"] ;
416 -> 422 ;
423 [label="gini = 0.0\nsamples = 2\nvalue = [0, 2]\nclass = Churn", fillcolor="#399de5"] ;
422 -> 423 ;
424 [label="gini = 0.0\nsamples = 1\nvalue = [1, 0]\nclass = Not churn", fillcolor="#e58139"] ;
422 -> 424 ;
425 [label="TotalCharges <= 43.5\ngini = 0.5\nsamples = 125\nvalue = [53, 72]\nclass = Churn", fillcolor="#cbe5f8"] ;
345 -> 425 ;
426 [label="Partner <= 0.5\ngini = 0.1\nsamples = 15\nvalue = [1, 14]\nclass = Churn", fillcolor="#47a4e7"] ;
425 -> 426 ;
427 [label="gini = 0.0\nsamples = 12\nvalue = [0, 12]\nclass = Churn", fillcolor="#399de5"] ;
426 -> 427 ;
428 [label="StreamingMovies <= 0.5\ngini = 0.4\nsamples = 3\nvalue = [1, 2]\nclass = Churn", fillcolor="#9ccef2"] ;
426 -> 428 ;
429 [label="gini = 0.0\nsamples = 2\nvalue = [0, 2]\nclass = Churn", fillcolor="#399de5"] ;
428 -> 429 ;
430 [label="gini = 0.0\nsamples = 1\nvalue = [1, 0]\nclass = Not churn", fillcolor="#e58139"] ;
428 -> 430 ;
431 [label="StreamingMovies <= 0.5\ngini = 0.5\nsamples = 110\nvalue = [52, 58]\nclass = Churn", fillcolor="#ebf5fc"] ;
425 -> 431 ;
432 [label="Partner <= 0.5\ngini = 0.5\nsamples = 82\nvalue = [45, 37]\nclass = Not churn", fillcolor="#fae9dc"] ;
431 -> 432 ;
433 [label="MonthlyCharges <= 49.3\ngini = 0.5\nsamples = 70\nvalue = [35, 35]\nclass = Not churn", fillcolor="#ffffff"] ;
432 -> 433 ;
434 [label="TotalCharges <= 89.4\ngini = 0.5\nsamples = 39\nvalue = [15, 24]\nclass = Churn", fillcolor="#b5daf5"] ;
433 -> 434 ;
435 [label="TotalCharges <= 81.7\ngini = 0.5\nsamples = 26\nvalue = [12, 14]\nclass = Churn", fillcolor="#e3f1fb"] ;
434 -> 435 ;
436 [label="MonthlyCharges <= 46.0\ngini = 0.4\nsamples = 21\nvalue = [7, 14]\nclass = Churn", fillcolor="#9ccef2"] ;
435 -> 436 ;
437 [label="TotalCharges <= 45.0\ngini = 0.4\nsamples = 19\nvalue = [5, 14]\nclass = Churn", fillcolor="#80c0ee"] ;
436 -> 437 ;
438 [label="MonthlyCharges <= 44.6\ngini = 0.5\nsamples = 5\nvalue = [3, 2]\nclass = Not churn", fillcolor="#f6d5bd"] ;
437 -> 438 ;
439 [label="gini = 0.4\nsamples = 3\nvalue = [1, 2]\nclass = Churn", fillcolor="#9ccef2"] ;
438 -> 439 ;
440 [label="gini = 0.0\nsamples = 2\nvalue = [2, 0]\nclass = Not churn", fillcolor="#e58139"] ;
438 -> 440 ;
441 [label="MonthlyCharges <= 24.6\ngini = 0.2\nsamples = 14\nvalue = [2, 12]\nclass = Churn", fillcolor="#5aade9"] ;
437 -> 441 ;
442 [label="gini = 0.0\nsamples = 1\nvalue = [1, 0]\nclass = Not churn", fillcolor="#e58139"] ;
441 -> 442 ;
443 [label="gini = 0.1\nsamples = 13\nvalue = [1, 12]\nclass = Churn", fillcolor="#49a5e7"] ;
441 -> 443 ;
444 [label="gini = 0.0\nsamples = 2\nvalue = [2, 0]\nclass = Not churn", fillcolor="#e58139"] ;
436 -> 444 ;
445 [label="gini = 0.0\nsamples = 5\nvalue = [5, 0]\nclass = Not churn", fillcolor="#e58139"] ;
435 -> 445 ;
446 [label="TechSupport <= 0.5\ngini = 0.4\nsamples = 13\nvalue = [3, 10]\nclass = Churn", fillcolor="#74baed"] ;
434 -> 446 ;
447 [label="TotalCharges <= 165.4\ngini = 0.2\nsamples = 10\nvalue = [1, 9]\nclass = Churn", fillcolor="#4fa8e8"] ;
446 -> 447 ;
448 [label="gini = 0.0\nsamples = 9\nvalue = [0, 9]\nclass = Churn", fillcolor="#399de5"] ;
447 -> 448 ;
449 [label="gini = 0.0\nsamples = 1\nvalue = [1, 0]\nclass = Not churn", fillcolor="#e58139"] ;
447 -> 449 ;
450 [label="tenure <= 4.5\ngini = 0.4\nsamples = 3\nvalue = [2, 1]\nclass = Not churn", fillcolor="#f2c09c"] ;
446 -> 450 ;
451 [label="gini = 0.0\nsamples = 2\nvalue = [2, 0]\nclass = Not churn", fillcolor="#e58139"] ;
450 -> 451 ;
452 [label="gini = 0.0\nsamples = 1\nvalue = [0, 1]\nclass = Churn", fillcolor="#399de5"] ;
450 -> 452 ;
453 [label="TotalCharges <= 50.3\ngini = 0.5\nsamples = 31\nvalue = [20, 11]\nclass = Not churn", fillcolor="#f3c6a6"] ;
433 -> 453 ;
454 [label="gini = 0.0\nsamples = 9\nvalue = [9, 0]\nclass = Not churn", fillcolor="#e58139"] ;
453 -> 454 ;
455 [label="TotalCharges <= 60.6\ngini = 0.5\nsamples = 22\nvalue = [11, 11]\nclass = Not churn", fillcolor="#ffffff"] ;
453 -> 455 ;
456 [label="StreamingTV <= 0.5\ngini = 0.2\nsamples = 9\nvalue = [1, 8]\nclass = Churn", fillcolor="#52a9e8"] ;
455 -> 456 ;
457 [label="gini = 0.0\nsamples = 7\nvalue = [0, 7]\nclass = Churn", fillcolor="#399de5"] ;
456 -> 457 ;
458 [label="TotalCharges <= 57.2\ngini = 0.5\nsamples = 2\nvalue = [1, 1]\nclass = Not churn", fillcolor="#ffffff"] ;
456 -> 458 ;
459 [label="gini = 0.0\nsamples = 1\nvalue = [1, 0]\nclass = Not churn", fillcolor="#e58139"] ;
458 -> 459 ;
460 [label="gini = 0.0\nsamples = 1\nvalue = [0, 1]\nclass = Churn", fillcolor="#399de5"] ;
458 -> 460 ;
461 [label="TotalCharges <= 299.9\ngini = 0.4\nsamples = 13\nvalue = [10, 3]\nclass = Not churn", fillcolor="#eda774"] ;
455 -> 461 ;
462 [label="gender <= 0.5\ngini = 0.3\nsamples = 12\nvalue = [10, 2]\nclass = Not churn", fillcolor="#ea9a61"] ;
461 -> 462 ;
463 [label="MonthlyCharges <= 54.8\ngini = 0.4\nsamples = 6\nvalue = [4, 2]\nclass = Not churn", fillcolor="#f2c09c"] ;
462 -> 463 ;
464 [label="gini = 0.0\nsamples = 2\nvalue = [2, 0]\nclass = Not churn", fillcolor="#e58139"] ;
463 -> 464 ;
465 [label="gini = 0.5\nsamples = 4\nvalue = [2, 2]\nclass = Not churn", fillcolor="#ffffff"] ;
463 -> 465 ;
466 [label="gini = 0.0\nsamples = 6\nvalue = [6, 0]\nclass = Not churn", fillcolor="#e58139"] ;
462 -> 466 ;
467 [label="gini = 0.0\nsamples = 1\nvalue = [0, 1]\nclass = Churn", fillcolor="#399de5"] ;
461 -> 467 ;
468 [label="MonthlyCharges <= 45.5\ngini = 0.3\nsamples = 12\nvalue = [10, 2]\nclass = Not churn", fillcolor="#ea9a61"] ;
432 -> 468 ;
469 [label="gini = 0.0\nsamples = 8\nvalue = [8, 0]\nclass = Not churn", fillcolor="#e58139"] ;
468 -> 469 ;
470 [label="MonthlyCharges <= 48.1\ngini = 0.5\nsamples = 4\nvalue = [2, 2]\nclass = Not churn", fillcolor="#ffffff"] ;
468 -> 470 ;
471 [label="gini = 0.0\nsamples = 1\nvalue = [0, 1]\nclass = Churn", fillcolor="#399de5"] ;
470 -> 471 ;
472 [label="PaperlessBilling <= 0.5\ngini = 0.4\nsamples = 3\nvalue = [2, 1]\nclass = Not churn", fillcolor="#f2c09c"] ;
470 -> 472 ;
473 [label="gini = 0.0\nsamples = 2\nvalue = [2, 0]\nclass = Not churn", fillcolor="#e58139"] ;
472 -> 473 ;
474 [label="gini = 0.0\nsamples = 1\nvalue = [0, 1]\nclass = Churn", fillcolor="#399de5"] ;
472 -> 474 ;
475 [label="TechSupport <= 0.5\ngini = 0.4\nsamples = 28\nvalue = [7, 21]\nclass = Churn", fillcolor="#7bbeee"] ;
431 -> 475 ;
476 [label="MonthlyCharges <= 51.0\ngini = 0.3\nsamples = 23\nvalue = [4, 19]\nclass = Churn", fillcolor="#63b2ea"] ;
475 -> 476 ;
477 [label="gini = 0.0\nsamples = 12\nvalue = [0, 12]\nclass = Churn", fillcolor="#399de5"] ;
476 -> 477 ;
478 [label="TotalCharges <= 129.1\ngini = 0.5\nsamples = 11\nvalue = [4, 7]\nclass = Churn", fillcolor="#aad5f4"] ;
476 -> 478 ;
479 [label="MonthlyCharges <= 55.4\ngini = 0.5\nsamples = 8\nvalue = [4, 4]\nclass = Not churn", fillcolor="#ffffff"] ;
478 -> 479 ;
480 [label="gini = 0.0\nsamples = 3\nvalue = [3, 0]\nclass = Not churn", fillcolor="#e58139"] ;
479 -> 480 ;
481 [label="tenure <= 1.5\ngini = 0.3\nsamples = 5\nvalue = [1, 4]\nclass = Churn", fillcolor="#6ab6ec"] ;
479 -> 481 ;
482 [label="gini = 0.0\nsamples = 4\nvalue = [0, 4]\nclass = Churn", fillcolor="#399de5"] ;
481 -> 482 ;
483 [label="gini = 0.0\nsamples = 1\nvalue = [1, 0]\nclass = Not churn", fillcolor="#e58139"] ;
481 -> 483 ;
484 [label="gini = 0.0\nsamples = 3\nvalue = [0, 3]\nclass = Churn", fillcolor="#399de5"] ;
478 -> 484 ;
485 [label="TotalCharges <= 176.9\ngini = 0.5\nsamples = 5\nvalue = [3, 2]\nclass = Not churn", fillcolor="#f6d5bd"] ;
475 -> 485 ;
486 [label="gini = 0.0\nsamples = 3\nvalue = [3, 0]\nclass = Not churn", fillcolor="#e58139"] ;
485 -> 486 ;
487 [label="gini = 0.0\nsamples = 2\nvalue = [0, 2]\nclass = Churn", fillcolor="#399de5"] ;
485 -> 487 ;
488 [label="TotalCharges <= 24.5\ngini = 0.4\nsamples = 157\nvalue = [112, 45]\nclass = Not churn", fillcolor="#efb489"] ;
344 -> 488 ;
489 [label="MonthlyCharges <= 19.8\ngini = 0.5\nsamples = 82\nvalue = [50, 32]\nclass = Not churn", fillcolor="#f6d2b8"] ;
488 -> 489 ;
490 [label="SeniorCitizen <= 0.5\ngini = 0.4\nsamples = 35\nvalue = [27, 8]\nclass = Not churn", fillcolor="#eda674"] ;
489 -> 490 ;
491 [label="PaymentMethod_Mailed check <= 0.5\ngini = 0.3\nsamples = 34\nvalue = [27, 7]\nclass = Not churn", fillcolor="#eca26c"] ;
490 -> 491 ;
492 [label="gini = 0.0\nsamples = 9\nvalue = [9, 0]\nclass = Not churn", fillcolor="#e58139"] ;
491 -> 492 ;
493 [label="gender <= 0.5\ngini = 0.4\nsamples = 25\nvalue = [18, 7]\nclass = Not churn", fillcolor="#efb286"] ;
491 -> 493 ;
494 [label="TotalCharges <= 19.5\ngini = 0.3\nsamples = 12\nvalue = [10, 2]\nclass = Not churn", fillcolor="#ea9a61"] ;
493 -> 494 ;
495 [label="Partner <= 0.5\ngini = 0.4\nsamples = 6\nvalue = [4, 2]\nclass = Not churn", fillcolor="#f2c09c"] ;
494 -> 495 ;
496 [label="PaperlessBilling <= 0.5\ngini = 0.5\nsamples = 5\nvalue = [3, 2]\nclass = Not churn", fillcolor="#f6d5bd"] ;
495 -> 496 ;
497 [label="MonthlyCharges <= 19.3\ngini = 0.4\nsamples = 4\nvalue = [3, 1]\nclass = Not churn", fillcolor="#eeab7b"] ;
496 -> 497 ;
498 [label="gini = 0.0\nsamples = 2\nvalue = [2, 0]\nclass = Not churn", fillcolor="#e58139"] ;
497 -> 498 ;
499 [label="gini = 0.5\nsamples = 2\nvalue = [1, 1]\nclass = Not churn", fillcolor="#ffffff"] ;
497 -> 499 ;
500 [label="gini = 0.0\nsamples = 1\nvalue = [0, 1]\nclass = Churn", fillcolor="#399de5"] ;
496 -> 500 ;
501 [label="gini = 0.0\nsamples = 1\nvalue = [1, 0]\nclass = Not churn", fillcolor="#e58139"] ;
495 -> 501 ;
502 [label="gini = 0.0\nsamples = 6\nvalue = [6, 0]\nclass = Not churn", fillcolor="#e58139"] ;
494 -> 502 ;
503 [label="TotalCharges <= 19.2\ngini = 0.5\nsamples = 13\nvalue = [8, 5]\nclass = Not churn", fillcolor="#f5d0b5"] ;
493 -> 503 ;
504 [label="gini = 0.0\nsamples = 2\nvalue = [2, 0]\nclass = Not churn", fillcolor="#e58139"] ;
503 -> 504 ;
505 [label="TotalCharges <= 19.7\ngini = 0.5\nsamples = 11\nvalue = [6, 5]\nclass = Not churn", fillcolor="#fbeade"] ;
503 -> 505 ;
506 [label="Partner <= 0.5\ngini = 0.5\nsamples = 9\nvalue = [4, 5]\nclass = Churn", fillcolor="#d7ebfa"] ;
505 -> 506 ;
507 [label="TotalCharges <= 19.4\ngini = 0.5\nsamples = 8\nvalue = [3, 5]\nclass = Churn", fillcolor="#b0d8f5"] ;
506 -> 507 ;
508 [label="gini = 0.0\nsamples = 1\nvalue = [0, 1]\nclass = Churn", fillcolor="#399de5"] ;
507 -> 508 ;
509 [label="Dependents <= 0.5\ngini = 0.5\nsamples = 7\nvalue = [3, 4]\nclass = Churn", fillcolor="#cee6f8"] ;
507 -> 509 ;
510 [label="gini = 0.4\nsamples = 6\nvalue = [2, 4]\nclass = Churn", fillcolor="#9ccef2"] ;
509 -> 510 ;
511 [label="gini = 0.0\nsamples = 1\nvalue = [1, 0]\nclass = Not churn", fillcolor="#e58139"] ;
509 -> 511 ;
512 [label="gini = 0.0\nsamples = 1\nvalue = [1, 0]\nclass = Not churn", fillcolor="#e58139"] ;
506 -> 512 ;
513 [label="gini = 0.0\nsamples = 2\nvalue = [2, 0]\nclass = Not churn", fillcolor="#e58139"] ;
505 -> 513 ;
514 [label="gini = 0.0\nsamples = 1\nvalue = [0, 1]\nclass = Churn", fillcolor="#399de5"] ;
490 -> 514 ;
515 [label="PaymentMethod_Electronic check <= 0.5\ngini = 0.5\nsamples = 47\nvalue = [23, 24]\nclass = Churn", fillcolor="#f7fbfe"] ;
489 -> 515 ;
516 [label="PaperlessBilling <= 0.5\ngini = 0.5\nsamples = 44\nvalue = [23, 21]\nclass = Not churn", fillcolor="#fdf4ee"] ;
515 -> 516 ;
517 [label="TotalCharges <= 20.2\ngini = 0.5\nsamples = 30\nvalue = [18, 12]\nclass = Not churn", fillcolor="#f6d5bd"] ;
516 -> 517 ;
518 [label="gender <= 0.5\ngini = 0.5\nsamples = 13\nvalue = [6, 7]\nclass = Churn", fillcolor="#e3f1fb"] ;
517 -> 518 ;
519 [label="TotalCharges <= 19.9\ngini = 0.3\nsamples = 6\nvalue = [5, 1]\nclass = Not churn", fillcolor="#ea9a61"] ;
518 -> 519 ;
520 [label="PaymentMethod_Mailed check <= 0.5\ngini = 0.4\nsamples = 3\nvalue = [2, 1]\nclass = Not churn", fillcolor="#f2c09c"] ;
519 -> 520 ;
521 [label="gini = 0.0\nsamples = 1\nvalue = [1, 0]\nclass = Not churn", fillcolor="#e58139"] ;
520 -> 521 ;
522 [label="gini = 0.5\nsamples = 2\nvalue = [1, 1]\nclass = Not churn", fillcolor="#ffffff"] ;
520 -> 522 ;
523 [label="gini = 0.0\nsamples = 3\nvalue = [3, 0]\nclass = Not churn", fillcolor="#e58139"] ;
519 -> 523 ;
524 [label="TotalCharges <= 19.9\ngini = 0.2\nsamples = 7\nvalue = [1, 6]\nclass = Churn", fillcolor="#5aade9"] ;
518 -> 524 ;
525 [label="MonthlyCharges <= 19.8\ngini = 0.5\nsamples = 2\nvalue = [1, 1]\nclass = Not churn", fillcolor="#ffffff"] ;
524 -> 525 ;
526 [label="gini = 0.0\nsamples = 1\nvalue = [0, 1]\nclass = Churn", fillcolor="#399de5"] ;
525 -> 526 ;
527 [label="gini = 0.0\nsamples = 1\nvalue = [1, 0]\nclass = Not churn", fillcolor="#e58139"] ;
525 -> 527 ;
528 [label="gini = 0.0\nsamples = 5\nvalue = [0, 5]\nclass = Churn", fillcolor="#399de5"] ;
524 -> 528 ;
529 [label="MonthlyCharges <= 20.6\ngini = 0.4\nsamples = 17\nvalue = [12, 5]\nclass = Not churn", fillcolor="#f0b58b"] ;
517 -> 529 ;
530 [label="TotalCharges <= 20.2\ngini = 0.3\nsamples = 11\nvalue = [9, 2]\nclass = Not churn", fillcolor="#eb9d65"] ;
529 -> 530 ;
531 [label="gini = 0.0\nsamples = 2\nvalue = [2, 0]\nclass = Not churn", fillcolor="#e58139"] ;
530 -> 531 ;
532 [label="MonthlyCharges <= 20.3\ngini = 0.3\nsamples = 9\nvalue = [7, 2]\nclass = Not churn", fillcolor="#eca572"] ;
530 -> 532 ;
533 [label="gini = 0.5\nsamples = 2\nvalue = [1, 1]\nclass = Not churn", fillcolor="#ffffff"] ;
532 -> 533 ;
534 [label="gender <= 0.5\ngini = 0.2\nsamples = 7\nvalue = [6, 1]\nclass = Not churn", fillcolor="#e9965a"] ;
532 -> 534 ;
535 [label="MonthlyCharges <= 20.4\ngini = 0.4\nsamples = 4\nvalue = [3, 1]\nclass = Not churn", fillcolor="#eeab7b"] ;
534 -> 535 ;
536 [label="gini = 0.0\nsamples = 1\nvalue = [1, 0]\nclass = Not churn", fillcolor="#e58139"] ;
535 -> 536 ;
537 [label="gini = 0.4\nsamples = 3\nvalue = [2, 1]\nclass = Not churn", fillcolor="#f2c09c"] ;
535 -> 537 ;
538 [label="gini = 0.0\nsamples = 3\nvalue = [3, 0]\nclass = Not churn", fillcolor="#e58139"] ;
534 -> 538 ;
539 [label="Dependents <= 0.5\ngini = 0.5\nsamples = 6\nvalue = [3, 3]\nclass = Not churn", fillcolor="#ffffff"] ;
529 -> 539 ;
540 [label="PaymentMethod_Mailed check <= 0.5\ngini = 0.4\nsamples = 4\nvalue = [1, 3]\nclass = Churn", fillcolor="#7bbeee"] ;
539 -> 540 ;
541 [label="gini = 0.0\nsamples = 1\nvalue = [1, 0]\nclass = Not churn", fillcolor="#e58139"] ;
540 -> 541 ;
542 [label="gini = 0.0\nsamples = 3\nvalue = [0, 3]\nclass = Churn", fillcolor="#399de5"] ;
540 -> 542 ;
543 [label="gini = 0.0\nsamples = 2\nvalue = [2, 0]\nclass = Not churn", fillcolor="#e58139"] ;
539 -> 543 ;
544 [label="gender <= 0.5\ngini = 0.5\nsamples = 14\nvalue = [5, 9]\nclass = Churn", fillcolor="#a7d3f3"] ;
516 -> 544 ;
545 [label="MonthlyCharges <= 20.3\ngini = 0.2\nsamples = 7\nvalue = [1, 6]\nclass = Churn", fillcolor="#5aade9"] ;
544 -> 545 ;
546 [label="gini = 0.0\nsamples = 4\nvalue = [0, 4]\nclass = Churn", fillcolor="#399de5"] ;
545 -> 546 ;
547 [label="MonthlyCharges <= 20.4\ngini = 0.4\nsamples = 3\nvalue = [1, 2]\nclass = Churn", fillcolor="#9ccef2"] ;
545 -> 547 ;
548 [label="gini = 0.0\nsamples = 1\nvalue = [1, 0]\nclass = Not churn", fillcolor="#e58139"] ;
547 -> 548 ;
549 [label="gini = 0.0\nsamples = 2\nvalue = [0, 2]\nclass = Churn", fillcolor="#399de5"] ;
547 -> 549 ;
550 [label="Dependents <= 0.5\ngini = 0.5\nsamples = 7\nvalue = [4, 3]\nclass = Not churn", fillcolor="#f8e0ce"] ;
544 -> 550 ;
551 [label="TotalCharges <= 20.2\ngini = 0.5\nsamples = 5\nvalue = [2, 3]\nclass = Churn", fillcolor="#bddef6"] ;
550 -> 551 ;
552 [label="gini = 0.0\nsamples = 2\nvalue = [0, 2]\nclass = Churn", fillcolor="#399de5"] ;
551 -> 552 ;
553 [label="TotalCharges <= 22.2\ngini = 0.4\nsamples = 3\nvalue = [2, 1]\nclass = Not churn", fillcolor="#f2c09c"] ;
551 -> 553 ;
554 [label="gini = 0.0\nsamples = 2\nvalue = [2, 0]\nclass = Not churn", fillcolor="#e58139"] ;
553 -> 554 ;
555 [label="gini = 0.0\nsamples = 1\nvalue = [0, 1]\nclass = Churn", fillcolor="#399de5"] ;
553 -> 555 ;
556 [label="gini = 0.0\nsamples = 2\nvalue = [2, 0]\nclass = Not churn", fillcolor="#e58139"] ;
550 -> 556 ;
557 [label="gini = 0.0\nsamples = 3\nvalue = [0, 3]\nclass = Churn", fillcolor="#399de5"] ;
515 -> 557 ;
558 [label="MonthlyCharges <= 19.9\ngini = 0.3\nsamples = 75\nvalue = [62, 13]\nclass = Not churn", fillcolor="#ea9b63"] ;
488 -> 558 ;
559 [label="MonthlyCharges <= 19.5\ngini = 0.4\nsamples = 27\nvalue = [18, 9]\nclass = Not churn", fillcolor="#f2c09c"] ;
558 -> 559 ;
560 [label="TotalCharges <= 109.7\ngini = 0.2\nsamples = 11\nvalue = [10, 1]\nclass = Not churn", fillcolor="#e88e4d"] ;
559 -> 560 ;
561 [label="gini = 0.0\nsamples = 10\nvalue = [10, 0]\nclass = Not churn", fillcolor="#e58139"] ;
560 -> 561 ;
562 [label="gini = 0.0\nsamples = 1\nvalue = [0, 1]\nclass = Churn", fillcolor="#399de5"] ;
560 -> 562 ;
563 [label="TotalCharges <= 31.4\ngini = 0.5\nsamples = 16\nvalue = [8, 8]\nclass = Not churn", fillcolor="#ffffff"] ;
559 -> 563 ;
564 [label="gini = 0.0\nsamples = 2\nvalue = [2, 0]\nclass = Not churn", fillcolor="#e58139"] ;
563 -> 564 ;
565 [label="Partner <= 0.5\ngini = 0.5\nsamples = 14\nvalue = [6, 8]\nclass = Churn", fillcolor="#cee6f8"] ;
563 -> 565 ;
566 [label="gender <= 0.5\ngini = 0.4\nsamples = 12\nvalue = [4, 8]\nclass = Churn", fillcolor="#9ccef2"] ;
565 -> 566 ;
567 [label="MonthlyCharges <= 19.6\ngini = 0.2\nsamples = 7\nvalue = [1, 6]\nclass = Churn", fillcolor="#5aade9"] ;
566 -> 567 ;
568 [label="MonthlyCharges <= 19.5\ngini = 0.5\nsamples = 2\nvalue = [1, 1]\nclass = Not churn", fillcolor="#ffffff"] ;
567 -> 568 ;
569 [label="gini = 0.0\nsamples = 1\nvalue = [0, 1]\nclass = Churn", fillcolor="#399de5"] ;
568 -> 569 ;
570 [label="gini = 0.0\nsamples = 1\nvalue = [1, 0]\nclass = Not churn", fillcolor="#e58139"] ;
568 -> 570 ;
571 [label="gini = 0.0\nsamples = 5\nvalue = [0, 5]\nclass = Churn", fillcolor="#399de5"] ;
567 -> 571 ;
572 [label="TotalCharges <= 54.9\ngini = 0.5\nsamples = 5\nvalue = [3, 2]\nclass = Not churn", fillcolor="#f6d5bd"] ;
566 -> 572 ;
573 [label="gini = 0.0\nsamples = 1\nvalue = [1, 0]\nclass = Not churn", fillcolor="#e58139"] ;
572 -> 573 ;
574 [label="PaymentMethod_Mailed check <= 0.5\ngini = 0.5\nsamples = 4\nvalue = [2, 2]\nclass = Not churn", fillcolor="#ffffff"] ;
572 -> 574 ;
575 [label="gini = 0.0\nsamples = 1\nvalue = [1, 0]\nclass = Not churn", fillcolor="#e58139"] ;
574 -> 575 ;
576 [label="TotalCharges <= 66.5\ngini = 0.4\nsamples = 3\nvalue = [1, 2]\nclass = Churn", fillcolor="#9ccef2"] ;
574 -> 576 ;
577 [label="gini = 0.0\nsamples = 2\nvalue = [0, 2]\nclass = Churn", fillcolor="#399de5"] ;
576 -> 577 ;
578 [label="gini = 0.0\nsamples = 1\nvalue = [1, 0]\nclass = Not churn", fillcolor="#e58139"] ;
576 -> 578 ;
579 [label="gini = 0.0\nsamples = 2\nvalue = [2, 0]\nclass = Not churn", fillcolor="#e58139"] ;
565 -> 579 ;
580 [label="MonthlyCharges <= 20.3\ngini = 0.2\nsamples = 48\nvalue = [44, 4]\nclass = Not churn", fillcolor="#e78c4b"] ;
558 -> 580 ;
581 [label="gini = 0.0\nsamples = 23\nvalue = [23, 0]\nclass = Not churn", fillcolor="#e58139"] ;
580 -> 581 ;
582 [label="PaymentMethod_Credit card (automatic) <= 0.5\ngini = 0.3\nsamples = 25\nvalue = [21, 4]\nclass = Not churn", fillcolor="#ea995f"] ;
580 -> 582 ;
583 [label="TotalCharges <= 103.7\ngini = 0.2\nsamples = 23\nvalue = [20, 3]\nclass = Not churn", fillcolor="#e99457"] ;
582 -> 583 ;
584 [label="gender <= 0.5\ngini = 0.2\nsamples = 21\nvalue = [19, 2]\nclass = Not churn", fillcolor="#e88e4e"] ;
583 -> 584 ;
585 [label="MonthlyCharges <= 20.7\ngini = 0.3\nsamples = 10\nvalue = [8, 2]\nclass = Not churn", fillcolor="#eca06a"] ;
584 -> 585 ;
586 [label="MonthlyCharges <= 20.6\ngini = 0.5\nsamples = 5\nvalue = [3, 2]\nclass = Not churn", fillcolor="#f6d5bd"] ;
585 -> 586 ;
587 [label="tenure <= 3.5\ngini = 0.4\nsamples = 4\nvalue = [3, 1]\nclass = Not churn", fillcolor="#eeab7b"] ;
586 -> 587 ;
588 [label="gini = 0.0\nsamples = 3\nvalue = [3, 0]\nclass = Not churn", fillcolor="#e58139"] ;
587 -> 588 ;
589 [label="gini = 0.0\nsamples = 1\nvalue = [0, 1]\nclass = Churn", fillcolor="#399de5"] ;
587 -> 589 ;
590 [label="gini = 0.0\nsamples = 1\nvalue = [0, 1]\nclass = Churn", fillcolor="#399de5"] ;
586 -> 590 ;
591 [label="gini = 0.0\nsamples = 5\nvalue = [5, 0]\nclass = Not churn", fillcolor="#e58139"] ;
585 -> 591 ;
592 [label="gini = 0.0\nsamples = 11\nvalue = [11, 0]\nclass = Not churn", fillcolor="#e58139"] ;
584 -> 592 ;
593 [label="MonthlyCharges <= 23.2\ngini = 0.5\nsamples = 2\nvalue = [1, 1]\nclass = Not churn", fillcolor="#ffffff"] ;
583 -> 593 ;
594 [label="gini = 0.0\nsamples = 1\nvalue = [0, 1]\nclass = Churn", fillcolor="#399de5"] ;
593 -> 594 ;
595 [label="gini = 0.0\nsamples = 1\nvalue = [1, 0]\nclass = Not churn", fillcolor="#e58139"] ;
593 -> 595 ;
596 [label="tenure <= 4.0\ngini = 0.5\nsamples = 2\nvalue = [1, 1]\nclass = Not churn", fillcolor="#ffffff"] ;
582 -> 596 ;
597 [label="gini = 0.0\nsamples = 1\nvalue = [0, 1]\nclass = Churn", fillcolor="#399de5"] ;
596 -> 597 ;
598 [label="gini = 0.0\nsamples = 1\nvalue = [1, 0]\nclass = Not churn", fillcolor="#e58139"] ;
596 -> 598 ;
599 [label="PhoneService <= 0.5\ngini = 0.3\nsamples = 567\nvalue = [477, 90]\nclass = Not churn", fillcolor="#ea995e"] ;
343 -> 599 ;
600 [label="tenure <= 15.5\ngini = 0.4\nsamples = 134\nvalue = [99, 35]\nclass = Not churn", fillcolor="#eeae7f"] ;
599 -> 600 ;
601 [label="OnlineSecurity <= 0.5\ngini = 0.5\nsamples = 42\nvalue = [26, 16]\nclass = Not churn", fillcolor="#f5cfb3"] ;
600 -> 601 ;
602 [label="MonthlyCharges <= 29.5\ngini = 0.5\nsamples = 31\nvalue = [16, 15]\nclass = Not churn", fillcolor="#fdf7f3"] ;
601 -> 602 ;
603 [label="PaymentMethod_Mailed check <= 0.5\ngini = 0.2\nsamples = 9\nvalue = [8, 1]\nclass = Not churn", fillcolor="#e89152"] ;
602 -> 603 ;
604 [label="gini = 0.0\nsamples = 7\nvalue = [7, 0]\nclass = Not churn", fillcolor="#e58139"] ;
603 -> 604 ;
605 [label="Dependents <= 0.5\ngini = 0.5\nsamples = 2\nvalue = [1, 1]\nclass = Not churn", fillcolor="#ffffff"] ;
603 -> 605 ;
606 [label="gini = 0.0\nsamples = 1\nvalue = [1, 0]\nclass = Not churn", fillcolor="#e58139"] ;
605 -> 606 ;
607 [label="gini = 0.0\nsamples = 1\nvalue = [0, 1]\nclass = Churn", fillcolor="#399de5"] ;
605 -> 607 ;
608 [label="MonthlyCharges <= 35.7\ngini = 0.5\nsamples = 22\nvalue = [8, 14]\nclass = Churn", fillcolor="#aad5f4"] ;
602 -> 608 ;
609 [label="tenure <= 13.5\ngini = 0.2\nsamples = 9\nvalue = [1, 8]\nclass = Churn", fillcolor="#52a9e8"] ;
608 -> 609 ;
610 [label="gini = 0.0\nsamples = 7\nvalue = [0, 7]\nclass = Churn", fillcolor="#399de5"] ;
609 -> 610 ;
611 [label="tenure <= 14.5\ngini = 0.5\nsamples = 2\nvalue = [1, 1]\nclass = Not churn", fillcolor="#ffffff"] ;
609 -> 611 ;
612 [label="gini = 0.0\nsamples = 1\nvalue = [1, 0]\nclass = Not churn", fillcolor="#e58139"] ;
611 -> 612 ;
613 [label="gini = 0.0\nsamples = 1\nvalue = [0, 1]\nclass = Churn", fillcolor="#399de5"] ;
611 -> 613 ;
614 [label="OnlineBackup <= 0.5\ngini = 0.5\nsamples = 13\nvalue = [7, 6]\nclass = Not churn", fillcolor="#fbede3"] ;
608 -> 614 ;
615 [label="MonthlyCharges <= 49.0\ngini = 0.5\nsamples = 10\nvalue = [4, 6]\nclass = Churn", fillcolor="#bddef6"] ;
614 -> 615 ;
616 [label="TotalCharges <= 284.1\ngini = 0.3\nsamples = 6\nvalue = [1, 5]\nclass = Churn", fillcolor="#61b1ea"] ;
615 -> 616 ;
617 [label="gini = 0.0\nsamples = 1\nvalue = [1, 0]\nclass = Not churn", fillcolor="#e58139"] ;
616 -> 617 ;
618 [label="gini = 0.0\nsamples = 5\nvalue = [0, 5]\nclass = Churn", fillcolor="#399de5"] ;
616 -> 618 ;
619 [label="TotalCharges <= 681.1\ngini = 0.4\nsamples = 4\nvalue = [3, 1]\nclass = Not churn", fillcolor="#eeab7b"] ;
615 -> 619 ;
620 [label="gini = 0.0\nsamples = 2\nvalue = [2, 0]\nclass = Not churn", fillcolor="#e58139"] ;
619 -> 620 ;
621 [label="TotalCharges <= 742.4\ngini = 0.5\nsamples = 2\nvalue = [1, 1]\nclass = Not churn", fillcolor="#ffffff"] ;
619 -> 621 ;
622 [label="gini = 0.0\nsamples = 1\nvalue = [0, 1]\nclass = Churn", fillcolor="#399de5"] ;
621 -> 622 ;
623 [label="gini = 0.0\nsamples = 1\nvalue = [1, 0]\nclass = Not churn", fillcolor="#e58139"] ;
621 -> 623 ;
624 [label="gini = 0.0\nsamples = 3\nvalue = [3, 0]\nclass = Not churn", fillcolor="#e58139"] ;
614 -> 624 ;
625 [label="MonthlyCharges <= 54.7\ngini = 0.2\nsamples = 11\nvalue = [10, 1]\nclass = Not churn", fillcolor="#e88e4d"] ;
601 -> 625 ;
626 [label="gini = 0.0\nsamples = 9\nvalue = [9, 0]\nclass = Not churn", fillcolor="#e58139"] ;
625 -> 626 ;
627 [label="Dependents <= 0.5\ngini = 0.5\nsamples = 2\nvalue = [1, 1]\nclass = Not churn", fillcolor="#ffffff"] ;
625 -> 627 ;
628 [label="gini = 0.0\nsamples = 1\nvalue = [0, 1]\nclass = Churn", fillcolor="#399de5"] ;
627 -> 628 ;
629 [label="gini = 0.0\nsamples = 1\nvalue = [1, 0]\nclass = Not churn", fillcolor="#e58139"] ;
627 -> 629 ;
630 [label="MonthlyCharges <= 54.1\ngini = 0.3\nsamples = 92\nvalue = [73, 19]\nclass = Not churn", fillcolor="#eca26d"] ;
600 -> 630 ;
631 [label="tenure <= 19.5\ngini = 0.3\nsamples = 86\nvalue = [71, 15]\nclass = Not churn", fillcolor="#ea9c63"] ;
630 -> 631 ;
632 [label="gini = 0.0\nsamples = 11\nvalue = [11, 0]\nclass = Not churn", fillcolor="#e58139"] ;
631 -> 632 ;
633 [label="TotalCharges <= 494.4\ngini = 0.3\nsamples = 75\nvalue = [60, 15]\nclass = Not churn", fillcolor="#eca06a"] ;
631 -> 633 ;
634 [label="gini = 0.0\nsamples = 1\nvalue = [0, 1]\nclass = Churn", fillcolor="#399de5"] ;
633 -> 634 ;
635 [label="TotalCharges <= 972.5\ngini = 0.3\nsamples = 74\nvalue = [60, 14]\nclass = Not churn", fillcolor="#eb9e67"] ;
633 -> 635 ;
636 [label="MonthlyCharges <= 30.4\ngini = 0.4\nsamples = 19\nvalue = [13, 6]\nclass = Not churn", fillcolor="#f1bb94"] ;
635 -> 636 ;
637 [label="PaymentMethod_Credit card (automatic) <= 0.5\ngini = 0.2\nsamples = 11\nvalue = [10, 1]\nclass = Not churn", fillcolor="#e88e4d"] ;
636 -> 637 ;
638 [label="gini = 0.0\nsamples = 7\nvalue = [7, 0]\nclass = Not churn", fillcolor="#e58139"] ;
637 -> 638 ;
639 [label="MonthlyCharges <= 25.1\ngini = 0.4\nsamples = 4\nvalue = [3, 1]\nclass = Not churn", fillcolor="#eeab7b"] ;
637 -> 639 ;
640 [label="gini = 0.0\nsamples = 2\nvalue = [2, 0]\nclass = Not churn", fillcolor="#e58139"] ;
639 -> 640 ;
641 [label="TechSupport <= 0.5\ngini = 0.5\nsamples = 2\nvalue = [1, 1]\nclass = Not churn", fillcolor="#ffffff"] ;
639 -> 641 ;
642 [label="gini = 0.0\nsamples = 1\nvalue = [0, 1]\nclass = Churn", fillcolor="#399de5"] ;
641 -> 642 ;
643 [label="gini = 0.0\nsamples = 1\nvalue = [1, 0]\nclass = Not churn", fillcolor="#e58139"] ;
641 -> 643 ;
644 [label="Partner <= 0.5\ngini = 0.5\nsamples = 8\nvalue = [3, 5]\nclass = Churn", fillcolor="#b0d8f5"] ;
636 -> 644 ;
645 [label="MonthlyCharges <= 30.9\ngini = 0.4\nsamples = 4\nvalue = [3, 1]\nclass = Not churn", fillcolor="#eeab7b"] ;
644 -> 645 ;
646 [label="gini = 0.0\nsamples = 1\nvalue = [0, 1]\nclass = Churn", fillcolor="#399de5"] ;
645 -> 646 ;
647 [label="gini = 0.0\nsamples = 3\nvalue = [3, 0]\nclass = Not churn", fillcolor="#e58139"] ;
645 -> 647 ;
648 [label="gini = 0.0\nsamples = 4\nvalue = [0, 4]\nclass = Churn", fillcolor="#399de5"] ;
644 -> 648 ;
649 [label="TotalCharges <= 1631.7\ngini = 0.2\nsamples = 55\nvalue = [47, 8]\nclass = Not churn", fillcolor="#e9965b"] ;
635 -> 649 ;
650 [label="TotalCharges <= 1174.4\ngini = 0.1\nsamples = 29\nvalue = [27, 2]\nclass = Not churn", fillcolor="#e78a48"] ;
649 -> 650 ;
651 [label="tenure <= 29.5\ngini = 0.3\nsamples = 11\nvalue = [9, 2]\nclass = Not churn", fillcolor="#eb9d65"] ;
650 -> 651 ;
652 [label="gini = 0.0\nsamples = 8\nvalue = [8, 0]\nclass = Not churn", fillcolor="#e58139"] ;
651 -> 652 ;
653 [label="TotalCharges <= 1091.2\ngini = 0.4\nsamples = 3\nvalue = [1, 2]\nclass = Churn", fillcolor="#9ccef2"] ;
651 -> 653 ;
654 [label="gini = 0.0\nsamples = 1\nvalue = [1, 0]\nclass = Not churn", fillcolor="#e58139"] ;
653 -> 654 ;
655 [label="gini = 0.0\nsamples = 2\nvalue = [0, 2]\nclass = Churn", fillcolor="#399de5"] ;
653 -> 655 ;
656 [label="gini = 0.0\nsamples = 18\nvalue = [18, 0]\nclass = Not churn", fillcolor="#e58139"] ;
650 -> 656 ;
657 [label="tenure <= 48.5\ngini = 0.4\nsamples = 26\nvalue = [20, 6]\nclass = Not churn", fillcolor="#eda774"] ;
649 -> 657 ;
658 [label="Dependents <= 0.5\ngini = 0.5\nsamples = 9\nvalue = [5, 4]\nclass = Not churn", fillcolor="#fae6d7"] ;
657 -> 658 ;
659 [label="PaperlessBilling <= 0.5\ngini = 0.5\nsamples = 7\nvalue = [3, 4]\nclass = Churn", fillcolor="#cee6f8"] ;
658 -> 659 ;
660 [label="gini = 0.0\nsamples = 1\nvalue = [1, 0]\nclass = Not churn", fillcolor="#e58139"] ;
659 -> 660 ;
661 [label="Partner <= 0.5\ngini = 0.4\nsamples = 6\nvalue = [2, 4]\nclass = Churn", fillcolor="#9ccef2"] ;
659 -> 661 ;
662 [label="gini = 0.5\nsamples = 4\nvalue = [2, 2]\nclass = Not churn", fillcolor="#ffffff"] ;
661 -> 662 ;
663 [label="gini = 0.0\nsamples = 2\nvalue = [0, 2]\nclass = Churn", fillcolor="#399de5"] ;
661 -> 663 ;
664 [label="gini = 0.0\nsamples = 2\nvalue = [2, 0]\nclass = Not churn", fillcolor="#e58139"] ;
658 -> 664 ;
665 [label="tenure <= 58.0\ngini = 0.2\nsamples = 17\nvalue = [15, 2]\nclass = Not churn", fillcolor="#e89253"] ;
657 -> 665 ;
666 [label="gini = 0.0\nsamples = 10\nvalue = [10, 0]\nclass = Not churn", fillcolor="#e58139"] ;
665 -> 666 ;
667 [label="OnlineBackup <= 0.5\ngini = 0.4\nsamples = 7\nvalue = [5, 2]\nclass = Not churn", fillcolor="#efb388"] ;
665 -> 667 ;
668 [label="gini = 0.0\nsamples = 3\nvalue = [3, 0]\nclass = Not churn", fillcolor="#e58139"] ;
667 -> 668 ;
669 [label="MonthlyCharges <= 45.4\ngini = 0.5\nsamples = 4\nvalue = [2, 2]\nclass = Not churn", fillcolor="#ffffff"] ;
667 -> 669 ;
670 [label="gini = 0.0\nsamples = 1\nvalue = [0, 1]\nclass = Churn", fillcolor="#399de5"] ;
669 -> 670 ;
671 [label="gini = 0.4\nsamples = 3\nvalue = [2, 1]\nclass = Not churn", fillcolor="#f2c09c"] ;
669 -> 671 ;
672 [label="MonthlyCharges <= 58.7\ngini = 0.4\nsamples = 6\nvalue = [2, 4]\nclass = Churn", fillcolor="#9ccef2"] ;
630 -> 672 ;
673 [label="gini = 0.0\nsamples = 4\nvalue = [0, 4]\nclass = Churn", fillcolor="#399de5"] ;
672 -> 673 ;
674 [label="gini = 0.0\nsamples = 2\nvalue = [2, 0]\nclass = Not churn", fillcolor="#e58139"] ;
672 -> 674 ;
675 [label="tenure <= 17.5\ngini = 0.2\nsamples = 433\nvalue = [378, 55]\nclass = Not churn", fillcolor="#e99356"] ;
599 -> 675 ;
676 [label="MonthlyCharges <= 44.0\ngini = 0.3\nsamples = 221\nvalue = [182, 39]\nclass = Not churn", fillcolor="#eb9c63"] ;
675 -> 676 ;
677 [label="MonthlyCharges <= 19.4\ngini = 0.2\nsamples = 90\nvalue = [81, 9]\nclass = Not churn", fillcolor="#e88f4f"] ;
676 -> 677 ;
678 [label="TotalCharges <= 121.4\ngini = 0.5\nsamples = 11\nvalue = [7, 4]\nclass = Not churn", fillcolor="#f4c9aa"] ;
677 -> 678 ;
679 [label="gini = 0.0\nsamples = 1\nvalue = [0, 1]\nclass = Churn", fillcolor="#399de5"] ;
678 -> 679 ;
680 [label="TotalCharges <= 177.1\ngini = 0.4\nsamples = 10\nvalue = [7, 3]\nclass = Not churn", fillcolor="#f0b78e"] ;
678 -> 680 ;
681 [label="gini = 0.0\nsamples = 4\nvalue = [4, 0]\nclass = Not churn", fillcolor="#e58139"] ;
680 -> 681 ;
682 [label="TotalCharges <= 236.3\ngini = 0.5\nsamples = 6\nvalue = [3, 3]\nclass = Not churn", fillcolor="#ffffff"] ;
680 -> 682 ;
683 [label="gini = 0.0\nsamples = 2\nvalue = [0, 2]\nclass = Churn", fillcolor="#399de5"] ;
682 -> 683 ;
684 [label="MonthlyCharges <= 19.4\ngini = 0.4\nsamples = 4\nvalue = [3, 1]\nclass = Not churn", fillcolor="#eeab7b"] ;
682 -> 684 ;
685 [label="gini = 0.0\nsamples = 3\nvalue = [3, 0]\nclass = Not churn", fillcolor="#e58139"] ;
684 -> 685 ;
686 [label="gini = 0.0\nsamples = 1\nvalue = [0, 1]\nclass = Churn", fillcolor="#399de5"] ;
684 -> 686 ;
687 [label="SeniorCitizen <= 0.5\ngini = 0.1\nsamples = 79\nvalue = [74, 5]\nclass = Not churn", fillcolor="#e78a46"] ;
677 -> 687 ;
688 [label="gender <= 0.5\ngini = 0.1\nsamples = 77\nvalue = [73, 4]\nclass = Not churn", fillcolor="#e68844"] ;
687 -> 688 ;
689 [label="PaymentMethod_Mailed check <= 0.5\ngini = 0.2\nsamples = 34\nvalue = [30, 4]\nclass = Not churn", fillcolor="#e89253"] ;
688 -> 689 ;
690 [label="TotalCharges <= 167.6\ngini = 0.4\nsamples = 17\nvalue = [13, 4]\nclass = Not churn", fillcolor="#eda876"] ;
689 -> 690 ;
691 [label="PaymentMethod_Bank transfer (automatic) <= 0.5\ngini = 0.4\nsamples = 3\nvalue = [1, 2]\nclass = Churn", fillcolor="#9ccef2"] ;
690 -> 691 ;
692 [label="gini = 0.0\nsamples = 1\nvalue = [1, 0]\nclass = Not churn", fillcolor="#e58139"] ;
691 -> 692 ;
693 [label="gini = 0.0\nsamples = 2\nvalue = [0, 2]\nclass = Churn", fillcolor="#399de5"] ;
691 -> 693 ;
694 [label="MultipleLines_Yes <= 0.5\ngini = 0.2\nsamples = 14\nvalue = [12, 2]\nclass = Not churn", fillcolor="#e9965a"] ;
690 -> 694 ;
695 [label="Dependents <= 0.5\ngini = 0.1\nsamples = 13\nvalue = [12, 1]\nclass = Not churn", fillcolor="#e78c49"] ;
694 -> 695 ;
696 [label="gini = 0.0\nsamples = 9\nvalue = [9, 0]\nclass = Not churn", fillcolor="#e58139"] ;
695 -> 696 ;
697 [label="Partner <= 0.5\ngini = 0.4\nsamples = 4\nvalue = [3, 1]\nclass = Not churn", fillcolor="#eeab7b"] ;
695 -> 697 ;
698 [label="gini = 0.0\nsamples = 1\nvalue = [0, 1]\nclass = Churn", fillcolor="#399de5"] ;
697 -> 698 ;
699 [label="gini = 0.0\nsamples = 3\nvalue = [3, 0]\nclass = Not churn", fillcolor="#e58139"] ;
697 -> 699 ;
700 [label="gini = 0.0\nsamples = 1\nvalue = [0, 1]\nclass = Churn", fillcolor="#399de5"] ;
694 -> 700 ;
701 [label="gini = 0.0\nsamples = 17\nvalue = [17, 0]\nclass = Not churn", fillcolor="#e58139"] ;
689 -> 701 ;
702 [label="gini = 0.0\nsamples = 43\nvalue = [43, 0]\nclass = Not churn", fillcolor="#e58139"] ;
688 -> 702 ;
703 [label="tenure <= 8.5\ngini = 0.5\nsamples = 2\nvalue = [1, 1]\nclass = Not churn", fillcolor="#ffffff"] ;
687 -> 703 ;
704 [label="gini = 0.0\nsamples = 1\nvalue = [1, 0]\nclass = Not churn", fillcolor="#e58139"] ;
703 -> 704 ;
705 [label="gini = 0.0\nsamples = 1\nvalue = [0, 1]\nclass = Churn", fillcolor="#399de5"] ;
703 -> 705 ;
706 [label="MonthlyCharges <= 45.4\ngini = 0.4\nsamples = 131\nvalue = [101, 30]\nclass = Not churn", fillcolor="#eda674"] ;
676 -> 706 ;
707 [label="MonthlyCharges <= 44.6\ngini = 0.5\nsamples = 14\nvalue = [6, 8]\nclass = Churn", fillcolor="#cee6f8"] ;
706 -> 707 ;
708 [label="gini = 0.0\nsamples = 3\nvalue = [0, 3]\nclass = Churn", fillcolor="#399de5"] ;
707 -> 708 ;
709 [label="gender <= 0.5\ngini = 0.5\nsamples = 11\nvalue = [6, 5]\nclass = Not churn", fillcolor="#fbeade"] ;
707 -> 709 ;
710 [label="gini = 0.0\nsamples = 4\nvalue = [4, 0]\nclass = Not churn", fillcolor="#e58139"] ;
709 -> 710 ;
711 [label="MonthlyCharges <= 44.9\ngini = 0.4\nsamples = 7\nvalue = [2, 5]\nclass = Churn", fillcolor="#88c4ef"] ;
709 -> 711 ;
712 [label="tenure <= 6.5\ngini = 0.4\nsamples = 3\nvalue = [2, 1]\nclass = Not churn", fillcolor="#f2c09c"] ;
711 -> 712 ;
713 [label="gini = 0.0\nsamples = 1\nvalue = [0, 1]\nclass = Churn", fillcolor="#399de5"] ;
712 -> 713 ;
714 [label="gini = 0.0\nsamples = 2\nvalue = [2, 0]\nclass = Not churn", fillcolor="#e58139"] ;
712 -> 714 ;
715 [label="gini = 0.0\nsamples = 4\nvalue = [0, 4]\nclass = Churn", fillcolor="#399de5"] ;
711 -> 715 ;
716 [label="TotalCharges <= 272.0\ngini = 0.3\nsamples = 117\nvalue = [95, 22]\nclass = Not churn", fillcolor="#eb9e67"] ;
706 -> 716 ;
717 [label="gini = 0.0\nsamples = 1\nvalue = [0, 1]\nclass = Churn", fillcolor="#399de5"] ;
716 -> 717 ;
718 [label="Partner <= 0.5\ngini = 0.3\nsamples = 116\nvalue = [95, 21]\nclass = Not churn", fillcolor="#eb9d65"] ;
716 -> 718 ;
719 [label="MultipleLines_No <= 0.5\ngini = 0.4\nsamples = 64\nvalue = [48, 16]\nclass = Not churn", fillcolor="#eeab7b"] ;
718 -> 719 ;
720 [label="TotalCharges <= 544.6\ngini = 0.5\nsamples = 19\nvalue = [11, 8]\nclass = Not churn", fillcolor="#f8ddc9"] ;
719 -> 720 ;
721 [label="gini = 0.0\nsamples = 2\nvalue = [0, 2]\nclass = Churn", fillcolor="#399de5"] ;
720 -> 721 ;
722 [label="MonthlyCharges <= 55.5\ngini = 0.5\nsamples = 17\nvalue = [11, 6]\nclass = Not churn", fillcolor="#f3c6a5"] ;
720 -> 722 ;
723 [label="TotalCharges <= 757.4\ngini = 0.2\nsamples = 7\nvalue = [6, 1]\nclass = Not churn", fillcolor="#e9965a"] ;
722 -> 723 ;
724 [label="gini = 0.0\nsamples = 4\nvalue = [4, 0]\nclass = Not churn", fillcolor="#e58139"] ;
723 -> 724 ;
725 [label="tenure <= 15.5\ngini = 0.4\nsamples = 3\nvalue = [2, 1]\nclass = Not churn", fillcolor="#f2c09c"] ;
723 -> 725 ;
726 [label="gini = 0.0\nsamples = 1\nvalue = [0, 1]\nclass = Churn", fillcolor="#399de5"] ;
725 -> 726 ;
727 [label="gini = 0.0\nsamples = 2\nvalue = [2, 0]\nclass = Not churn", fillcolor="#e58139"] ;
725 -> 727 ;
728 [label="PaperlessBilling <= 0.5\ngini = 0.5\nsamples = 10\nvalue = [5, 5]\nclass = Not churn", fillcolor="#ffffff"] ;
722 -> 728 ;
729 [label="gini = 0.0\nsamples = 3\nvalue = [3, 0]\nclass = Not churn", fillcolor="#e58139"] ;
728 -> 729 ;
730 [label="TotalCharges <= 1063.5\ngini = 0.4\nsamples = 7\nvalue = [2, 5]\nclass = Churn", fillcolor="#88c4ef"] ;
728 -> 730 ;
731 [label="gini = 0.0\nsamples = 5\nvalue = [0, 5]\nclass = Churn", fillcolor="#399de5"] ;
730 -> 731 ;
732 [label="gini = 0.0\nsamples = 2\nvalue = [2, 0]\nclass = Not churn", fillcolor="#e58139"] ;
730 -> 732 ;
733 [label="MonthlyCharges <= 48.7\ngini = 0.3\nsamples = 45\nvalue = [37, 8]\nclass = Not churn", fillcolor="#eb9c64"] ;
719 -> 733 ;
734 [label="Dependents <= 0.5\ngini = 0.4\nsamples = 3\nvalue = [1, 2]\nclass = Churn", fillcolor="#9ccef2"] ;
733 -> 734 ;
735 [label="gini = 0.0\nsamples = 2\nvalue = [0, 2]\nclass = Churn", fillcolor="#399de5"] ;
734 -> 735 ;
736 [label="gini = 0.0\nsamples = 1\nvalue = [1, 0]\nclass = Not churn", fillcolor="#e58139"] ;
734 -> 736 ;
737 [label="TotalCharges <= 615.6\ngini = 0.2\nsamples = 42\nvalue = [36, 6]\nclass = Not churn", fillcolor="#e9965a"] ;
733 -> 737 ;
738 [label="gini = 0.0\nsamples = 20\nvalue = [20, 0]\nclass = Not churn", fillcolor="#e58139"] ;
737 -> 738 ;
739 [label="tenure <= 9.5\ngini = 0.4\nsamples = 22\nvalue = [16, 6]\nclass = Not churn", fillcolor="#efb083"] ;
737 -> 739 ;
740 [label="gender <= 0.5\ngini = 0.4\nsamples = 4\nvalue = [1, 3]\nclass = Churn", fillcolor="#7bbeee"] ;
739 -> 740 ;
741 [label="gini = 0.0\nsamples = 3\nvalue = [0, 3]\nclass = Churn", fillcolor="#399de5"] ;
740 -> 741 ;
742 [label="gini = 0.0\nsamples = 1\nvalue = [1, 0]\nclass = Not churn", fillcolor="#e58139"] ;
740 -> 742 ;
743 [label="SeniorCitizen <= 0.5\ngini = 0.3\nsamples = 18\nvalue = [15, 3]\nclass = Not churn", fillcolor="#ea9a61"] ;
739 -> 743 ;
744 [label="gini = 0.2\nsamples = 17\nvalue = [15, 2]\nclass = Not churn", fillcolor="#e89253"] ;
743 -> 744 ;
745 [label="gini = 0.0\nsamples = 1\nvalue = [0, 1]\nclass = Churn", fillcolor="#399de5"] ;
743 -> 745 ;
746 [label="TotalCharges <= 430.4\ngini = 0.2\nsamples = 52\nvalue = [47, 5]\nclass = Not churn", fillcolor="#e88e4e"] ;
718 -> 746 ;
747 [label="DeviceProtection <= 0.5\ngini = 0.4\nsamples = 11\nvalue = [8, 3]\nclass = Not churn", fillcolor="#efb083"] ;
746 -> 747 ;
748 [label="gini = 0.0\nsamples = 8\nvalue = [8, 0]\nclass = Not churn", fillcolor="#e58139"] ;
747 -> 748 ;
749 [label="gini = 0.0\nsamples = 3\nvalue = [0, 3]\nclass = Churn", fillcolor="#399de5"] ;
747 -> 749 ;
750 [label="TotalCharges <= 933.8\ngini = 0.1\nsamples = 41\nvalue = [39, 2]\nclass = Not churn", fillcolor="#e68743"] ;
746 -> 750 ;
751 [label="gini = 0.0\nsamples = 31\nvalue = [31, 0]\nclass = Not churn", fillcolor="#e58139"] ;
750 -> 751 ;
752 [label="TotalCharges <= 942.8\ngini = 0.3\nsamples = 10\nvalue = [8, 2]\nclass = Not churn", fillcolor="#eca06a"] ;
750 -> 752 ;
753 [label="gini = 0.0\nsamples = 2\nvalue = [0, 2]\nclass = Churn", fillcolor="#399de5"] ;
752 -> 753 ;
754 [label="gini = 0.0\nsamples = 8\nvalue = [8, 0]\nclass = Not churn", fillcolor="#e58139"] ;
752 -> 754 ;
755 [label="MonthlyCharges <= 55.0\ngini = 0.1\nsamples = 212\nvalue = [196, 16]\nclass = Not churn", fillcolor="#e78b49"] ;
675 -> 755 ;
756 [label="SeniorCitizen <= 0.5\ngini = 0.0\nsamples = 108\nvalue = [106, 2]\nclass = Not churn", fillcolor="#e5833d"] ;
755 -> 756 ;
757 [label="PaymentMethod_Credit card (automatic) <= 0.5\ngini = 0.0\nsamples = 102\nvalue = [101, 1]\nclass = Not churn", fillcolor="#e5823b"] ;
756 -> 757 ;
758 [label="gini = 0.0\nsamples = 86\nvalue = [86, 0]\nclass = Not churn", fillcolor="#e58139"] ;
757 -> 758 ;
759 [label="OnlineSecurity <= 0.5\ngini = 0.1\nsamples = 16\nvalue = [15, 1]\nclass = Not churn", fillcolor="#e78946"] ;
757 -> 759 ;
760 [label="gini = 0.0\nsamples = 12\nvalue = [12, 0]\nclass = Not churn", fillcolor="#e58139"] ;
759 -> 760 ;
761 [label="MonthlyCharges <= 49.7\ngini = 0.4\nsamples = 4\nvalue = [3, 1]\nclass = Not churn", fillcolor="#eeab7b"] ;
759 -> 761 ;
762 [label="gini = 0.0\nsamples = 1\nvalue = [0, 1]\nclass = Churn", fillcolor="#399de5"] ;
761 -> 762 ;
763 [label="gini = 0.0\nsamples = 3\nvalue = [3, 0]\nclass = Not churn", fillcolor="#e58139"] ;
761 -> 763 ;
764 [label="TotalCharges <= 1484.8\ngini = 0.3\nsamples = 6\nvalue = [5, 1]\nclass = Not churn", fillcolor="#ea9a61"] ;
756 -> 764 ;
765 [label="gini = 0.0\nsamples = 4\nvalue = [4, 0]\nclass = Not churn", fillcolor="#e58139"] ;
764 -> 765 ;
766 [label="tenure <= 31.0\ngini = 0.5\nsamples = 2\nvalue = [1, 1]\nclass = Not churn", fillcolor="#ffffff"] ;
764 -> 766 ;
767 [label="gini = 0.0\nsamples = 1\nvalue = [0, 1]\nclass = Churn", fillcolor="#399de5"] ;
766 -> 767 ;
768 [label="gini = 0.0\nsamples = 1\nvalue = [1, 0]\nclass = Not churn", fillcolor="#e58139"] ;
766 -> 768 ;
769 [label="MonthlyCharges <= 55.0\ngini = 0.2\nsamples = 104\nvalue = [90, 14]\nclass = Not churn", fillcolor="#e99558"] ;
755 -> 769 ;
770 [label="gini = 0.0\nsamples = 2\nvalue = [0, 2]\nclass = Churn", fillcolor="#399de5"] ;
769 -> 770 ;
771 [label="PaymentMethod_Electronic check <= 0.5\ngini = 0.2\nsamples = 102\nvalue = [90, 12]\nclass = Not churn", fillcolor="#e89253"] ;
769 -> 771 ;
772 [label="MonthlyCharges <= 55.5\ngini = 0.1\nsamples = 68\nvalue = [64, 4]\nclass = Not churn", fillcolor="#e78945"] ;
771 -> 772 ;
773 [label="TechSupport <= 0.5\ngini = 0.4\nsamples = 3\nvalue = [2, 1]\nclass = Not churn", fillcolor="#f2c09c"] ;
772 -> 773 ;
774 [label="gini = 0.0\nsamples = 1\nvalue = [0, 1]\nclass = Churn", fillcolor="#399de5"] ;
773 -> 774 ;
775 [label="gini = 0.0\nsamples = 2\nvalue = [2, 0]\nclass = Not churn", fillcolor="#e58139"] ;
773 -> 775 ;
776 [label="Partner <= 0.5\ngini = 0.1\nsamples = 65\nvalue = [62, 3]\nclass = Not churn", fillcolor="#e68743"] ;
772 -> 776 ;
777 [label="gender <= 0.5\ngini = 0.2\nsamples = 33\nvalue = [30, 3]\nclass = Not churn", fillcolor="#e88e4d"] ;
776 -> 777 ;
778 [label="MonthlyCharges <= 61.2\ngini = 0.3\nsamples = 20\nvalue = [17, 3]\nclass = Not churn", fillcolor="#ea975c"] ;
777 -> 778 ;
779 [label="gini = 0.0\nsamples = 8\nvalue = [8, 0]\nclass = Not churn", fillcolor="#e58139"] ;
778 -> 779 ;
780 [label="TechSupport <= 0.5\ngini = 0.4\nsamples = 12\nvalue = [9, 3]\nclass = Not churn", fillcolor="#eeab7b"] ;
778 -> 780 ;
781 [label="gini = 0.0\nsamples = 2\nvalue = [0, 2]\nclass = Churn", fillcolor="#399de5"] ;
780 -> 781 ;
782 [label="MonthlyCharges <= 65.5\ngini = 0.2\nsamples = 10\nvalue = [9, 1]\nclass = Not churn", fillcolor="#e88f4f"] ;
780 -> 782 ;
783 [label="gini = 0.5\nsamples = 2\nvalue = [1, 1]\nclass = Not churn", fillcolor="#ffffff"] ;
782 -> 783 ;
784 [label="gini = 0.0\nsamples = 8\nvalue = [8, 0]\nclass = Not churn", fillcolor="#e58139"] ;
782 -> 784 ;
785 [label="gini = 0.0\nsamples = 13\nvalue = [13, 0]\nclass = Not churn", fillcolor="#e58139"] ;
777 -> 785 ;
786 [label="gini = 0.0\nsamples = 32\nvalue = [32, 0]\nclass = Not churn", fillcolor="#e58139"] ;
776 -> 786 ;
787 [label="TotalCharges <= 2652.8\ngini = 0.4\nsamples = 34\nvalue = [26, 8]\nclass = Not churn", fillcolor="#eda876"] ;
771 -> 787 ;
788 [label="TotalCharges <= 2221.5\ngini = 0.4\nsamples = 24\nvalue = [16, 8]\nclass = Not churn", fillcolor="#f2c09c"] ;
787 -> 788 ;
789 [label="TotalCharges <= 1042.1\ngini = 0.3\nsamples = 19\nvalue = [15, 4]\nclass = Not churn", fillcolor="#eca36e"] ;
788 -> 789 ;
790 [label="gini = 0.0\nsamples = 1\nvalue = [0, 1]\nclass = Churn", fillcolor="#399de5"] ;
789 -> 790 ;
791 [label="MultipleLines_Yes <= 0.5\ngini = 0.3\nsamples = 18\nvalue = [15, 3]\nclass = Not churn", fillcolor="#ea9a61"] ;
789 -> 791 ;
792 [label="gini = 0.0\nsamples = 7\nvalue = [7, 0]\nclass = Not churn", fillcolor="#e58139"] ;
791 -> 792 ;
793 [label="tenure <= 27.0\ngini = 0.4\nsamples = 11\nvalue = [8, 3]\nclass = Not churn", fillcolor="#efb083"] ;
791 -> 793 ;
794 [label="OnlineSecurity <= 0.5\ngini = 0.5\nsamples = 6\nvalue = [3, 3]\nclass = Not churn", fillcolor="#ffffff"] ;
793 -> 794 ;
795 [label="gini = 0.4\nsamples = 4\nvalue = [3, 1]\nclass = Not churn", fillcolor="#eeab7b"] ;
794 -> 795 ;
796 [label="gini = 0.0\nsamples = 2\nvalue = [0, 2]\nclass = Churn", fillcolor="#399de5"] ;
794 -> 796 ;
797 [label="gini = 0.0\nsamples = 5\nvalue = [5, 0]\nclass = Not churn", fillcolor="#e58139"] ;
793 -> 797 ;
798 [label="SeniorCitizen <= 0.5\ngini = 0.3\nsamples = 5\nvalue = [1, 4]\nclass = Churn", fillcolor="#6ab6ec"] ;
788 -> 798 ;
799 [label="gini = 0.0\nsamples = 4\nvalue = [0, 4]\nclass = Churn", fillcolor="#399de5"] ;
798 -> 799 ;
800 [label="gini = 0.0\nsamples = 1\nvalue = [1, 0]\nclass = Not churn", fillcolor="#e58139"] ;
798 -> 800 ;
801 [label="gini = 0.0\nsamples = 10\nvalue = [10, 0]\nclass = Not churn", fillcolor="#e58139"] ;
787 -> 801 ;
802 [label="tenure <= 10.5\ngini = 0.5\nsamples = 1149\nvalue = [518, 631]\nclass = Churn", fillcolor="#dcedfa"] ;
342 -> 802 ;
803 [label="TotalCharges <= 120.0\ngini = 0.4\nsamples = 437\nvalue = [120, 317]\nclass = Churn", fillcolor="#84c2ef"] ;
802 -> 803 ;
804 [label="TechSupport <= 0.5\ngini = 0.2\nsamples = 118\nvalue = [13, 105]\nclass = Churn", fillcolor="#52a9e8"] ;
803 -> 804 ;
805 [label="MonthlyCharges <= 70.5\ngini = 0.2\nsamples = 116\nvalue = [12, 104]\nclass = Churn", fillcolor="#50a8e8"] ;
804 -> 805 ;
806 [label="gender <= 0.5\ngini = 0.1\nsamples = 31\nvalue = [1, 30]\nclass = Churn", fillcolor="#40a0e6"] ;
805 -> 806 ;
807 [label="gini = 0.0\nsamples = 17\nvalue = [0, 17]\nclass = Churn", fillcolor="#399de5"] ;
806 -> 807 ;
808 [label="MonthlyCharges <= 69.9\ngini = 0.1\nsamples = 14\nvalue = [1, 13]\nclass = Churn", fillcolor="#48a5e7"] ;
806 -> 808 ;
809 [label="gini = 0.0\nsamples = 8\nvalue = [0, 8]\nclass = Churn", fillcolor="#399de5"] ;
808 -> 809 ;
810 [label="MonthlyCharges <= 70.0\ngini = 0.3\nsamples = 6\nvalue = [1, 5]\nclass = Churn", fillcolor="#61b1ea"] ;
808 -> 810 ;
811 [label="PaymentMethod_Electronic check <= 0.5\ngini = 0.4\nsamples = 3\nvalue = [1, 2]\nclass = Churn", fillcolor="#9ccef2"] ;
810 -> 811 ;
812 [label="gini = 0.0\nsamples = 1\nvalue = [0, 1]\nclass = Churn", fillcolor="#399de5"] ;
811 -> 812 ;
813 [label="gini = 0.5\nsamples = 2\nvalue = [1, 1]\nclass = Not churn", fillcolor="#ffffff"] ;
811 -> 813 ;
814 [label="gini = 0.0\nsamples = 3\nvalue = [0, 3]\nclass = Churn", fillcolor="#399de5"] ;
810 -> 814 ;
815 [label="TotalCharges <= 70.6\ngini = 0.2\nsamples = 85\nvalue = [11, 74]\nclass = Churn", fillcolor="#56ace9"] ;
805 -> 815 ;
816 [label="PaymentMethod_Electronic check <= 0.5\ngini = 0.4\nsamples = 3\nvalue = [2, 1]\nclass = Not churn", fillcolor="#f2c09c"] ;
815 -> 816 ;
817 [label="gini = 0.0\nsamples = 2\nvalue = [2, 0]\nclass = Not churn", fillcolor="#e58139"] ;
816 -> 817 ;
818 [label="gini = 0.0\nsamples = 1\nvalue = [0, 1]\nclass = Churn", fillcolor="#399de5"] ;
816 -> 818 ;
819 [label="PaymentMethod_Electronic check <= 0.5\ngini = 0.2\nsamples = 82\nvalue = [9, 73]\nclass = Churn", fillcolor="#51a9e8"] ;
815 -> 819 ;
820 [label="gini = 0.0\nsamples = 18\nvalue = [0, 18]\nclass = Churn", fillcolor="#399de5"] ;
819 -> 820 ;
821 [label="Partner <= 0.5\ngini = 0.2\nsamples = 64\nvalue = [9, 55]\nclass = Churn", fillcolor="#59ade9"] ;
819 -> 821 ;
822 [label="TotalCharges <= 75.7\ngini = 0.2\nsamples = 55\nvalue = [6, 49]\nclass = Churn", fillcolor="#51a9e8"] ;
821 -> 822 ;
823 [label="MonthlyCharges <= 75.5\ngini = 0.3\nsamples = 15\nvalue = [3, 12]\nclass = Churn", fillcolor="#6ab6ec"] ;
822 -> 823 ;
824 [label="MultipleLines_Yes <= 0.5\ngini = 0.2\nsamples = 14\nvalue = [2, 12]\nclass = Churn", fillcolor="#5aade9"] ;
823 -> 824 ;
825 [label="gini = 0.0\nsamples = 7\nvalue = [0, 7]\nclass = Churn", fillcolor="#399de5"] ;
824 -> 825 ;
826 [label="TotalCharges <= 73.2\ngini = 0.4\nsamples = 7\nvalue = [2, 5]\nclass = Churn", fillcolor="#88c4ef"] ;
824 -> 826 ;
827 [label="gini = 0.0\nsamples = 1\nvalue = [1, 0]\nclass = Not churn", fillcolor="#e58139"] ;
826 -> 827 ;
828 [label="TotalCharges <= 75.0\ngini = 0.3\nsamples = 6\nvalue = [1, 5]\nclass = Churn", fillcolor="#61b1ea"] ;
826 -> 828 ;
829 [label="gini = 0.0\nsamples = 4\nvalue = [0, 4]\nclass = Churn", fillcolor="#399de5"] ;
828 -> 829 ;
830 [label="gini = 0.5\nsamples = 2\nvalue = [1, 1]\nclass = Not churn", fillcolor="#ffffff"] ;
828 -> 830 ;
